Image_face0001.jpg: -0.6601560115814209 0.152546688914299 -0.6536732912063599 -0.7181836366653442 0.6404014229774475 0.893385648727417 -0.21120451390743256 -0.10700130462646484 -0.014387167990207672 0.03217015415430069 0.7979840636253357 -0.18164043128490448 0.03707435727119446 -0.7869249582290649 0.28550437092781067 0.4014554023742676 -0.08338057994842529 0.22169597446918488 -0.03002292662858963 -0.5222885608673096 0.002458028495311737 0.10160146653652191 -0.33163776993751526 -0.14431717991828918 0.2403959035873413 -0.19411414861679077 -0.2887440323829651 0.41894975304603577 -0.8323898315429688 0.038868263363838196 0.2763082683086395 0.21894320845603943 0.5861126184463501 -0.06598327308893204 0.7699931263923645 -0.8489473462104797 1.2323271036148071 -0.7338377833366394 0.8429758548736572 -1.1805206537246704 0.42316049337387085 0.22524456679821014 0.08214016258716583 -0.01386549323797226 0.017804615199565887 -0.8487303256988525 0.5203630924224854 -0.6634438037872314 0.6668717265129089 0.5829163789749146 0.11824530363082886 -0.02002320997416973 0.4966420829296112 -1.0708696842193604 0.03954547643661499 0.3831660747528076 0.27964842319488525 -0.6798375248908997 0.42939260601997375 -0.2176927626132965 0.9705268740653992 0.3098449110984802 0.4127863645553589 0.8236185908317566 0.058698225766420364 -0.048565760254859924 -0.1637171506881714 -0.09315133839845657 0.7792782187461853 -0.9401825666427612 -0.0014355001039803028 -0.8258569240570068 -0.9969702363014221 -0.763975203037262 0.5570076107978821 0.13193416595458984 0.06870640814304352 0.4712667465209961 0.5608245730400085 -0.19519340991973877 -0.2682916820049286 0.10254867374897003 -0.44141867756843567 0.7127982378005981 0.49383601546287537 0.1268903911113739 0.5050467848777771 0.36717432737350464 -0.742965817451477 0.24796709418296814 -0.5703626275062561 0.060113921761512756 -0.5774624347686768 0.5177465081214905 0.7573095560073853 0.12365208566188812 -0.3974262475967407 -1.1732817888259888 -1.0657472610473633 0.4136691689491272 -0.03128520026803017 0.19050362706184387 -0.22525084018707275 -0.7878368496894836 -0.5675315260887146 0.13218113780021667 -0.6974948644638062 -0.6309704780578613 -0.7183857560157776 0.13701675832271576 -0.2628895044326782 0.3319914937019348 0.1669711172580719 0.3088247776031494 -0.2971583902835846 0.3138587474822998 -0.13964521884918213 -0.12712791562080383 -0.6087566018104553 1.0946714878082275 -0.4555014967918396 -0.3602541387081146 1.3165395259857178 0.8966975808143616 0.1597929298877716 -0.8975351452827454 0.7686853408813477 -0.14935973286628723
Image_face0002.jpg: -0.03723563253879547 -0.2508770227432251 -0.21654534339904785 -0.4128876328468323 0.4091514050960541 0.09082500636577606 0.18487286567687988 -0.18454964458942413 0.09682830423116684 0.12207542359828949 0.3995027244091034 -0.40081390738487244 -0.01799852028489113 -0.5837802290916443 0.007678188383579254 0.4831004738807678 0.24320492148399353 -0.38144469261169434 0.17469939589500427 -0.6108803749084473 0.06155785918235779 0.17951267957687378 -0.2494754195213318 -0.05196473002433777 0.16953623294830322 -0.20739594101905823 0.5927177667617798 0.4156326651573181 -0.34453052282333374 0.005764836445450783 -0.31626585125923157 0.3097291886806488 0.04928571730852127 -0.2235812544822693 0.5358564853668213 -0.3240607678890228 0.22476419806480408 0.06015099585056305 0.6020292043685913 -0.0012473240494728088 0.2466271072626114 -0.11059924215078354 -0.2762632369995117 -0.3062728941440582 -0.3839656114578247 -0.5171661972999573 0.11508670449256897 -0.12067033350467682 0.45217567682266235 0.36570873856544495 -0.43355053663253784 0.4022514224052429 0.30271658301353455 -0.3669906258583069 0.12322519719600677 0.36946260929107666 0.30987033247947693 0.15637363493442535 -0.2046131193637848 -0.7683539986610413 -0.36125773191452026 -0.43334710597991943 -0.056588657200336456 0.7448353171348572 0.1685904860496521 0.4180947542190552 0.2274700403213501 0.11076738685369492 0.12154895812273026 -0.4736299216747284 -0.10478349775075912 -0.458830326795578 0.26169201731681824 -0.4635441303253174 -0.16452357172966003 -0.12634272873401642 -0.07508338987827301 0.47431957721710205 -0.24769023060798645 -0.34303516149520874 -0.6336774230003357 -0.1841629296541214 0.2404564768075943 0.30503344535827637 0.4185819625854492 0.02176276594400406 0.5082082748413086 -0.32479774951934814 -0.6023210287094116 0.665803074836731 0.35669103264808655 0.140011727809906 -0.04409298673272133 -0.03221792355179787 0.5625196695327759 0.12212376296520233 -0.1459829956293106 -0.4143230617046356 -0.7866024374961853 0.06411224603652954 -0.3050878643989563 0.7077843546867371 0.19602040946483612 -0.3663063645362854 0.004631400108337402 0.15036112070083618 -0.07760392129421234 0.10057853907346725 -0.20026327669620514 -0.39230042695999146 0.15759561955928802 0.19701051712036133 0.46585485339164734 0.44064629077911377 -0.011192353442311287 0.23054486513137817 0.22827202081680298 0.5590822696685791 0.20677517354488373 0.2118443101644516 -0.1975083351135254 -0.0005739796906709671 0.45502328872680664 0.22749175131320953 0.22647391259670258 -0.42372140288352966 0.17066922783851624 0.09576199948787689
Image_face0003.jpg: -0.041434988379478455 -0.1404627561569214 -0.259365051984787 -0.5386370420455933 0.1487351506948471 0.14116644859313965 -0.0400577038526535 -0.13680343329906464 0.05444394797086716 0.09470976889133453 0.29100093245506287 -0.344587117433548 -0.13491542637348175 -0.4947589635848999 0.12001191824674606 0.30615538358688354 0.13993841409683228 -0.342293918132782 0.19329190254211426 -0.6668171286582947 -0.2523501515388489 0.1596582978963852 -0.26015761494636536 0.20556765794754028 0.25521889328956604 -0.07324738055467606 0.6511334180831909 0.44245022535324097 -0.46289604902267456 -0.18081073462963104 -0.37700706720352173 0.3274363875389099 0.09780456125736237 -0.21688899397850037 0.5801384449005127 -0.12547370791435242 0.2807917892932892 -0.0014926642179489136 0.8502036333084106 -0.08801449835300446 0.16121536493301392 -0.10225149244070053 -0.33368369936943054 -0.2889382243156433 -0.3258470296859741 -0.4653244614601135 0.2196131944656372 -0.13285976648330688 0.2564486265182495 0.3058522045612335 -0.2970263361930847 0.3862171471118927 0.5079466104507446 -0.3313145041465759 0.24783842265605927 0.5150786638259888 0.1998373419046402 0.09770050644874573 -0.05300891399383545 -0.6954815983772278 -0.0952368751168251 -0.3976876735687256 -0.18903294205665588 0.6793361902236938 0.4359622895717621 0.4708690047264099 0.14753252267837524 0.0563565157353878 0.0261935293674469 -0.44750604033470154 -0.15091951191425323 -0.4209299385547638 0.32646656036376953 -0.5527325868606567 -0.1825474500656128 -0.12489178776741028 -0.23202994465827942 0.46802008152008057 -0.05060103163123131 -0.3746073246002197 -0.5062281489372253 -0.2607956826686859 0.19778169691562653 0.6189228296279907 0.45945557951927185 -0.059173230081796646 0.6503359079360962 -0.3065757751464844 -0.5033944845199585 0.5018459558486938 0.3302270770072937 0.13667115569114685 -0.29943445324897766 -0.1750456690788269 0.5657248497009277 0.2823945879936218 -0.13757556676864624 -0.5869877934455872 -0.7838268280029297 0.0740920901298523 -0.3650013208389282 0.7020204663276672 0.1151573434472084 -0.3639245629310608 -0.056239526718854904 0.10803818702697754 -0.21042583882808685 0.12254376709461212 -0.026604006066918373 -0.48606160283088684 0.14143972098827362 0.04828749597072601 0.43325287103652954 0.4782153069972992 -0.08326925337314606 0.39126527309417725 0.08297046273946762 0.680845320224762 0.3935202360153198 0.30992886424064636 -0.30316171050071716 -0.17900419235229492 0.49792230129241943 0.3199346363544464 0.35373133420944214 -0.4699441194534302 0.47836363315582275 -0.09598014503717422
Image_face0004.jpg: -0.0682411640882492 -0.25107941031455994 -0.31094980239868164 -0.6099725961685181 0.30305251479148865 0.04358445107936859 0.08834263682365417 -0.19807665050029755 0.13050991296768188 -0.028176531195640564 0.6378812193870544 -0.3875199854373932 -0.10038968920707703 -0.7589923143386841 0.06789741665124893 0.453325092792511 0.12461189925670624 -0.3717191219329834 0.1474706530570984 -0.6070346832275391 -0.23026695847511292 0.18160991370677948 -0.09554719924926758 0.18472644686698914 0.3032035529613495 -0.08517508953809738 0.5934325456619263 0.3565218150615692 -0.45625460147857666 -0.132687047123909 -0.41149961948394775 0.2364225685596466 0.08932103961706161 -0.1762058585882187 0.5439901351928711 -0.0340549573302269 0.4508199691772461 0.1125529408454895 0.7437707185745239 -0.07995328307151794 0.1950092762708664 -0.055347710847854614 -0.1789858639240265 -0.1900545060634613 -0.3080337643623352 -0.6812865138053894 0.26249024271965027 -0.2222837507724762 0.3814235329627991 0.4307652413845062 -0.2652871608734131 0.2003132402896881 0.3657231628894806 -0.4342573881149292 -0.017630279064178467 0.4921981990337372 0.0953473150730133 0.20192115008831024 -0.11388112604618073 -0.45853129029273987 -0.05770319700241089 -0.48344242572784424 -0.24276544153690338 0.5065215229988098 0.3583182692527771 0.4912925958633423 0.049465324729681015 0.2645796537399292 0.0699903666973114 -0.4375403821468353 -0.18227353692054749 -0.45838457345962524 0.13093797862529755 -0.6340570449829102 -0.07337163388729095 -0.10052292048931122 -0.13745222985744476 0.5161617398262024 -0.23061281442642212 -0.3941897749900818 -0.6787631511688232 -0.1305069625377655 0.15820132195949554 0.5648432970046997 0.3315003514289856 -0.005497567355632782 0.7189112305641174 -0.3091204762458801 -0.4738771617412567 0.470844566822052 0.36751341819763184 0.0032000653445720673 -0.1464795619249344 -0.24861329793930054 0.4747812747955322 0.25381702184677124 -0.3883207440376282 -0.6715933084487915 -0.8831243515014648 0.13474984467029572 -0.21935798227787018 0.5318261981010437 0.2605648636817932 -0.5401520133018494 -0.11726988852024078 0.0497589111328125 -0.047813888639211655 -0.07848526537418365 -0.09971050918102264 -0.43906405568122864 0.2551250457763672 0.045040301978588104 0.6165310144424438 0.4336673617362976 0.0686226561665535 0.28246039152145386 0.07231887429952621 0.6227615475654602 0.2997540831565857 0.5171365141868591 -0.2484029233455658 -0.22235380113124847 0.5794271230697632 0.4395129382610321 0.26928961277008057 -0.532819926738739 0.3848399817943573 0.04923255741596222
Image_face0005.jpg: -0.0770559310913086 -0.3537044823169708 -0.25849106907844543 -0.4554402232170105 0.44945529103279114 -0.12062311172485352 0.05801885202527046 -0.07170984148979187 -0.016999319195747375 0.11075147986412048 0.5452828407287598 -0.5181338787078857 -0.037552982568740845 -0.6469050645828247 -0.03678275644779205 0.41933828592300415 0.26209044456481934 -0.42239099740982056 0.08691366761922836 -0.6431354880332947 -0.02241659164428711 0.16040533781051636 -0.13896796107292175 0.03566359728574753 0.2444993406534195 -0.23415273427963257 0.6488965749740601 0.4179856479167938 -0.45672720670700073 -0.10620439052581787 -0.37491995096206665 0.3290984332561493 0.043867260217666626 -0.09716792404651642 0.5179805755615234 -0.14409618079662323 0.47576165199279785 0.057230837643146515 0.6327383518218994 0.016186894848942757 0.21210487186908722 -0.04141193628311157 -0.16764375567436218 -0.21301284432411194 -0.3254430294036865 -0.48552778363227844 0.23355573415756226 -0.11917895078659058 0.4541324973106384 0.31281256675720215 -0.6005792021751404 0.41559645533561707 0.2989819049835205 -0.28530803322792053 -0.032073259353637695 0.45539844036102295 0.30550417304039 0.14556214213371277 -0.1626717895269394 -0.6811119318008423 -0.30958667397499084 -0.3543229103088379 -0.231426402926445 0.7266153693199158 0.21412897109985352 0.5450733304023743 0.21503576636314392 0.1716720312833786 0.04537225514650345 -0.4695926010608673 -0.14436478912830353 -0.4217171370983124 0.10727022588253021 -0.5768418908119202 -0.06294417381286621 -0.14183063805103302 -0.13208892941474915 0.492610365152359 -0.33530130982398987 -0.39195501804351807 -0.6294581890106201 -0.225864440202713 0.20036005973815918 0.38374847173690796 0.4624514877796173 0.10581418871879578 0.40966102480888367 -0.3155437409877777 -0.5714188814163208 0.6359277963638306 0.40096521377563477 0.1336812973022461 -0.0830097496509552 -0.12935617566108704 0.6173287034034729 0.2538011074066162 -0.1919993907213211 -0.5821011662483215 -0.8227986693382263 0.13252922892570496 -0.2793470621109009 0.5695253014564514 0.19470424950122833 -0.5348592400550842 -0.014609239995479584 0.2408907264471054 -0.08444643020629883 -0.0019233673810958862 -0.24042847752571106 -0.4106863737106323 0.14702744781970978 0.11744020879268646 0.5109933614730835 0.43911492824554443 0.0043414197862148285 0.2568401098251343 0.022316038608551025 0.5058185458183289 0.26284730434417725 0.2982540726661682 -0.21822381019592285 -0.2010687291622162 0.3892214298248291 0.24331331253051758 0.29251760244369507 -0.5606683492660522 0.3667498528957367 0.1316009908914566
Image_face0006.jpg: -0.07680554687976837 -0.24815258383750916 -0.23653346300125122 -0.479841023683548 0.3542534112930298 0.12933948636054993 0.26629433035850525 -0.0823180228471756 0.10207132250070572 0.027543723583221436 0.5603564977645874 -0.43894705176353455 -0.02109479531645775 -0.5945864915847778 -0.0350956916809082 0.4152819514274597 0.21923492848873138 -0.3572547435760498 0.11135101318359375 -0.5547425150871277 0.016989275813102722 0.12514851987361908 -0.2640564441680908 -0.00010582804679870605 0.17621774971485138 -0.19718119502067566 0.45555776357650757 0.24905547499656677 -0.3851182460784912 -0.12730112671852112 -0.2510063052177429 0.28078576922416687 -0.019832730293273926 -0.1551152914762497 0.47682642936706543 -0.3074638843536377 0.2614000737667084 0.1885155737400055 0.6424888968467712 -0.108075812458992 0.28165948390960693 -0.04312228783965111 -0.1767343282699585 -0.371296763420105 -0.41235384345054626 -0.6393061280250549 0.1738332062959671 -0.09688998758792877 0.47266072034835815 0.36761796474456787 -0.43225574493408203 0.3397219479084015 0.32954737544059753 -0.35003864765167236 -0.02585604414343834 0.35260599851608276 0.2243107110261917 0.07085828483104706 -0.17826594412326813 -0.6383371353149414 -0.31022101640701294 -0.3073936998844147 -0.12022723257541656 0.7853853702545166 0.23890632390975952 0.3579901456832886 0.17480868101119995 0.09117035567760468 0.12417954951524734 -0.3605014383792877 -0.07619667798280716 -0.48509085178375244 0.20349092781543732 -0.5269315838813782 -0.08060866594314575 -0.18587590754032135 -0.12170697748661041 0.4914546608924866 -0.2706007957458496 -0.3491477370262146 -0.5153635740280151 -0.29572346806526184 0.06854037940502167 0.19484573602676392 0.41390055418014526 0.1754557192325592 0.5210915803909302 -0.3388804793357849 -0.6180422306060791 0.6566975712776184 0.443965882062912 0.13298486173152924 -0.0829707682132721 -0.13199034333229065 0.5298176407814026 0.27055928111076355 -0.1578565090894699 -0.46072307229042053 -0.7211467623710632 0.08893251419067383 -0.3433659076690674 0.6468890309333801 0.28909850120544434 -0.3986911177635193 0.04309818148612976 0.2051367610692978 -0.030291792005300522 -0.03332109749317169 -0.25648391246795654 -0.37848684191703796 0.14096897840499878 0.1886521875858307 0.4607952833175659 0.4091610014438629 -0.09160325676202774 0.1491810530424118 0.04443536698818207 0.5401015877723694 0.15748095512390137 0.2771207392215729 -0.30533337593078613 -0.13145701587200165 0.47955435514450073 0.3625078797340393 0.16422739624977112 -0.43231725692749023 0.18125055730342865 0.10210633277893066
Image_face0007.jpg: -0.08616122603416443 -0.3554510176181793 -0.2298535406589508 -0.4860754907131195 0.3338867425918579 -0.16248171031475067 0.09755101799964905 -0.22067803144454956 0.05603475868701935 0.05420064553618431 0.3658682703971863 -0.3438473045825958 -0.0359736829996109 -0.5528459548950195 -0.010577067732810974 0.4491389989852905 0.31394559144973755 -0.3706095218658447 0.24960412085056305 -0.6860387921333313 -0.013686731457710266 0.09642472863197327 -0.28630316257476807 -0.04034391790628433 0.2945227026939392 -0.08909677714109421 0.689466655254364 0.42950907349586487 -0.2468903809785843 0.05005452781915665 -0.35249829292297363 0.30843645334243774 0.11410436034202576 -0.17603224515914917 0.5761196613311768 -0.26081886887550354 0.4162203073501587 0.028195731341838837 0.5770098567008972 0.014969032257795334 0.24499720335006714 0.03931763395667076 -0.22829601168632507 -0.21957577764987946 -0.3343670666217804 -0.4470171630382538 0.03354855999350548 -0.12403526902198792 0.3534921407699585 0.3263362646102905 -0.43589359521865845 0.3637220561504364 0.32065558433532715 -0.35651421546936035 0.04803326725959778 0.4364418387413025 0.4969189167022705 0.22964036464691162 -0.14497117698192596 -0.8131966590881348 -0.3148645758628845 -0.3172028064727783 -0.17312481999397278 0.7968550324440002 0.076048344373703 0.6164208054542542 0.28993546962738037 0.026314422488212585 0.15610897541046143 -0.5717285871505737 -0.006997960619628429 -0.4810387194156647 0.18045413494110107 -0.5090883374214172 -0.14228880405426025 -0.1481541395187378 -0.03222455084323883 0.4618213176727295 -0.23180243372917175 -0.5174104571342468 -0.6906609535217285 -0.11344166100025177 0.19368544220924377 0.22791537642478943 0.4585442841053009 -0.04064520448446274 0.4894440174102783 -0.1844671070575714 -0.5978051424026489 0.7818193435668945 0.22655434906482697 0.14231300354003906 -0.007261667400598526 -0.00856383889913559 0.5201980471611023 0.19578514993190765 -0.03755892813205719 -0.4724854528903961 -0.8141016364097595 0.12146038562059402 -0.24293355643749237 0.6409103870391846 0.3948400616645813 -0.46822524070739746 0.0416860431432724 0.26519954204559326 -0.0964755266904831 0.14013119041919708 -0.22516414523124695 -0.4165250360965729 0.18875311315059662 0.16947424411773682 0.4885174334049225 0.4018095135688782 0.01331377774477005 0.27179843187332153 0.21310752630233765 0.6108773350715637 0.3479442596435547 0.1605522185564041 -0.13786214590072632 -0.028644472360610962 0.4238102436065674 0.18364602327346802 0.37627995014190674 -0.4437014162540436 0.24012158811092377 0.032295651733875275
Image_face0008.jpg: -0.1783962845802307 -0.3407796323299408 -0.24438345432281494 -0.5251420140266418 0.40265387296676636 0.15455956757068634 0.07451295852661133 0.009273172356188297 0.06582130491733551 0.1292313039302826 0.4347623586654663 -0.33485400676727295 -0.02920212224125862 -0.571074366569519 -0.004567638039588928 0.5297401547431946 0.22916558384895325 -0.44306135177612305 0.29465341567993164 -0.5644589066505432 0.044426143169403076 0.15666376054286957 -0.1676236391067505 0.07275155186653137 0.10083448886871338 -0.21816229820251465 0.5575758814811707 0.39572885632514954 -0.365153968334198 -0.013298993930220604 -0.29099947214126587 0.2851400375366211 0.1177048310637474 -0.15043097734451294 0.5338649749755859 -0.36062899231910706 0.22041860222816467 0.12717193365097046 0.606467604637146 0.044749364256858826 0.24524545669555664 -0.10939758270978928 -0.28463321924209595 -0.2909178137779236 -0.431881844997406 -0.6191246509552002 0.15874198079109192 -0.11130017042160034 0.4131771922111511 0.37354540824890137 -0.4608314633369446 0.4525558054447174 0.3679908514022827 -0.35655128955841064 0.10369463264942169 0.21721872687339783 0.3912758529186249 0.21101093292236328 -0.34320563077926636 -0.8344135284423828 -0.2736559212207794 -0.3945806622505188 -0.14148318767547607 0.7453300952911377 0.09750999510288239 0.3690735101699829 0.2960279583930969 0.16397203505039215 0.026284784078598022 -0.4603743255138397 -0.08874059468507767 -0.5440264940261841 0.27382221817970276 -0.41684490442276 -0.07592800259590149 -0.09019285440444946 -0.05577710270881653 0.5841820240020752 -0.22851499915122986 -0.3308531641960144 -0.6892266273498535 -0.18877464532852173 0.17356587946414948 0.1627538502216339 0.34581542015075684 0.2056189477443695 0.5209243297576904 -0.21962575614452362 -0.6146836280822754 0.6862540245056152 0.40417200326919556 0.0840131938457489 -0.08094049990177155 -0.036097973585128784 0.7225155830383301 0.14218807220458984 -0.18888017535209656 -0.39881598949432373 -0.8908119201660156 0.05055345594882965 -0.280800998210907 0.6748804450035095 0.15554839372634888 -0.3371920585632324 0.01851404458284378 0.07878095656633377 -0.02602624148130417 0.05120217800140381 -0.12721173465251923 -0.3528560698032379 0.023405998945236206 0.17536720633506775 0.5093752145767212 0.41250142455101013 -0.18002739548683167 0.11972801387310028 0.14376313984394073 0.4242548644542694 0.24799901247024536 0.11550240218639374 -0.37512049078941345 0.014962957240641117 0.3703593611717224 0.20013175904750824 0.4303432106971741 -0.5009937286376953 0.22556303441524506 0.15751010179519653
Image_face0009.jpg: -0.026101835072040558 -0.2887597680091858 -0.23837634921073914 -0.48680925369262695 0.40927425026893616 0.004008417949080467 0.08884096145629883 -0.19278301298618317 0.07942576706409454 0.12872427701950073 0.33533263206481934 -0.3212813436985016 0.0035191625356674194 -0.5360124111175537 -0.0434844046831131 0.4611031413078308 0.22967183589935303 -0.3820871114730835 0.23998838663101196 -0.6181464195251465 0.06331975758075714 0.18513423204421997 -0.28334692120552063 0.009152565151453018 0.2303507924079895 -0.11012276262044907 0.6706109046936035 0.4581093490123749 -0.2491377741098404 -0.02063930779695511 -0.36375176906585693 0.3958101272583008 0.0804881602525711 -0.14884069561958313 0.5027839541435242 -0.310421347618103 0.27478334307670593 0.05698607861995697 0.5857357978820801 0.0939796194434166 0.22581355273723602 0.01548107247799635 -0.17807862162590027 -0.25630825757980347 -0.4143400192260742 -0.438667356967926 0.028537817299365997 -0.15216827392578125 0.40379518270492554 0.3515641391277313 -0.4689367413520813 0.3986143469810486 0.3152921497821808 -0.34491026401519775 0.13442718982696533 0.35015055537223816 0.39715224504470825 0.1214064508676529 -0.22979846596717834 -0.8415296673774719 -0.3731146454811096 -0.38257408142089844 -0.1269727498292923 0.7355161905288696 0.02226918749511242 0.6132063269615173 0.28535857796669006 0.09880111366510391 0.18575534224510193 -0.5626945495605469 -0.07960239052772522 -0.44476422667503357 0.2287982851266861 -0.4650677442550659 -0.10396037995815277 -0.10760524868965149 -0.059615496546030045 0.4682660400867462 -0.27106377482414246 -0.3629891276359558 -0.6943495273590088 -0.10571381449699402 0.23642660677433014 0.2973979711532593 0.44994091987609863 0.12243317067623138 0.4720905125141144 -0.2007266879081726 -0.5162171125411987 0.8004388809204102 0.3194725513458252 0.11377110332250595 0.03757269307971001 0.018831349909305573 0.6586968302726746 0.1896905153989792 -0.11815866827964783 -0.43982136249542236 -0.8203111290931702 0.045693911612033844 -0.2650737166404724 0.5792593955993652 0.27787071466445923 -0.41278544068336487 -0.028470970690250397 0.13827133178710938 -0.12051735818386078 0.21409809589385986 -0.22395576536655426 -0.3878352642059326 0.27554523944854736 0.12658587098121643 0.3844148814678192 0.495089590549469 0.014157222583889961 0.2887449264526367 0.1582273691892624 0.571252167224884 0.3317285478115082 0.0826302170753479 -0.17896175384521484 0.044928643852472305 0.37975311279296875 0.11084159463644028 0.300137460231781 -0.45496657490730286 0.21534955501556396 0.05789811164140701
Image_face0010.jpg: -0.5852221250534058 0.42602279782295227 -0.9235222935676575 -0.32469138503074646 -0.05516384169459343 0.8250532150268555 -0.5059079527854919 0.17237220704555511 -0.34853610396385193 -0.15621021389961243 0.33159151673316956 -0.26667025685310364 0.18904079496860504 -0.5504409074783325 0.1918659508228302 -0.08032266795635223 -0.05703452229499817 0.38875502347946167 -0.13675718009471893 -0.4909021556377411 -0.26460060477256775 0.20791569352149963 -0.7128517627716064 -0.5057244300842285 0.08659696578979492 0.4612236022949219 -0.11729146540164948 0.7104122638702393 -1.1549516916275024 -0.24135571718215942 0.3135731816291809 0.5901957154273987 0.5598625540733337 -0.19260261952877045 0.7167808413505554 -0.5818918347358704 1.2454829216003418 -0.719847559928894 1.5612506866455078 -1.1732127666473389 0.08635503798723221 0.5251017808914185 -0.1435079574584961 -0.8086276054382324 -0.01499105989933014 -0.05612214654684067 0.4109400808811188 -1.0115745067596436 0.3649400472640991 0.019563714042305946 0.5109385848045349 -0.14703823626041412 0.9370076060295105 -1.0486267805099487 0.6722947359085083 0.821585476398468 0.020902082324028015 -1.1347330808639526 1.2590503692626953 -0.483816921710968 1.064488172531128 0.470872163772583 0.44852036237716675 0.6630213260650635 0.4421873092651367 -0.6061179041862488 -0.13653534650802612 -0.534169614315033 0.48689812421798706 -0.6751413345336914 0.29452958703041077 -0.09197384119033813 -1.173751950263977 -0.7522751688957214 0.6798924803733826 0.694905698299408 -0.2573759853839874 0.8279649019241333 1.0135339498519897 -0.2446148544549942 0.31995388865470886 -0.044389866292476654 -0.8355921506881714 0.9049032926559448 0.8461868762969971 -0.1517607867717743 0.14389492571353912 0.36161571741104126 -1.1541191339492798 -0.03468857333064079 -0.5664005279541016 0.045444831252098083 -1.2746435403823853 0.6863921880722046 0.22731387615203857 -0.036690302193164825 0.08996619284152985 -0.978627622127533 0.09004560112953186 0.21303881704807281 -0.158709317445755 0.1517527997493744 -0.14441624283790588 -0.8483673930168152 -0.6479809284210205 0.4247361421585083 -0.9961290955543518 -0.20363175868988037 -1.0320472717285156 0.219895139336586 0.22064772248268127 0.1396605521440506 -0.5565571784973145 0.378853440284729 -0.1257525384426117 1.0902646780014038 -0.4112958312034607 -0.028888821601867676 -0.7684186100959778 1.4104149341583252 -0.19809281826019287 -0.5180706977844238 0.98306804895401 0.8445554375648499 -0.3500513434410095 -0.7108811736106873 0.6820075511932373 -0.8547462224960327
Image_face0011.jpg: -0.09643474221229553 -0.32261398434638977 -0.15684917569160461 -0.45029935240745544 0.400925874710083 0.1128460243344307 0.10780005156993866 -0.10058869421482086 0.1176731064915657 0.09917974472045898 0.4294641315937042 -0.32755574584007263 -0.0003948137164115906 -0.5867882966995239 0.026960715651512146 0.553061306476593 0.19349221885204315 -0.3011198043823242 0.21901939809322357 -0.5005009770393372 0.017326638102531433 0.20771150290966034 -0.22650745511054993 0.050735458731651306 0.11296303570270538 -0.17517361044883728 0.50360107421875 0.4195747971534729 -0.2962581515312195 0.011232148855924606 -0.24859967827796936 0.32886579632759094 0.14838740229606628 -0.1427796483039856 0.5394181609153748 -0.3655482232570648 0.12401760369539261 0.10521573573350906 0.4447939395904541 0.07516347616910934 0.26637008786201477 -0.12465827167034149 -0.27959513664245605 -0.3074268698692322 -0.3958485722541809 -0.591455340385437 0.129717618227005 0.0008420515805482864 0.3808780908584595 0.4089873135089874 -0.3312169313430786 0.4153832495212555 0.3134845495223999 -0.3123120665550232 0.2066947966814041 0.24826279282569885 0.3100780248641968 0.18417313694953918 -0.2888757586479187 -0.8137841820716858 -0.20470300316810608 -0.40685272216796875 -0.0618775337934494 0.7967658638954163 0.1240018829703331 0.39524340629577637 0.2500220239162445 0.16894182562828064 0.12882483005523682 -0.4763162434101105 -0.14056256413459778 -0.6756622791290283 0.30367758870124817 -0.4018517732620239 -0.1394282579421997 -0.1439073532819748 -0.08865922689437866 0.4693240821361542 -0.25732287764549255 -0.346608430147171 -0.6252942681312561 -0.25102874636650085 0.1421034336090088 0.30812183022499084 0.3952590525150299 0.07059650123119354 0.5456933975219727 -0.25412195920944214 -0.5180453658103943 0.6157934665679932 0.27854180335998535 0.11184216290712357 0.025763321667909622 -0.034627512097358704 0.6936812996864319 0.09148471057415009 -0.11075739562511444 -0.41117867827415466 -0.8602460026741028 0.026883574202656746 -0.29262644052505493 0.7222944498062134 0.10152322798967361 -0.27994275093078613 0.014808706939220428 0.15381880104541779 -0.0718734860420227 0.08465060591697693 -0.14593946933746338 -0.38021528720855713 0.08781088143587112 0.23204544186592102 0.4354475736618042 0.39946919679641724 -0.13820751011371613 0.18013976514339447 0.15495586395263672 0.36175185441970825 0.18369436264038086 0.07054220139980316 -0.33490413427352905 0.06380852311849594 0.38524872064590454 0.1346423178911209 0.4053264260292053 -0.4040544331073761 0.14903958141803741 0.17762792110443115
Image_face0012.jpg: -0.2809271812438965 -0.22589638829231262 -0.3983485698699951 -0.5938941836357117 0.31777432560920715 0.006053753197193146 -0.018831290304660797 0.09291993081569672 0.18555903434753418 -0.02303052321076393 0.5784107446670532 -0.19285085797309875 -0.13791432976722717 -0.571182131767273 0.14159342646598816 0.14857999980449677 -0.012015774846076965 -0.45584625005722046 0.04310194402933121 -0.6028496026992798 -0.16683751344680786 -0.04203369840979576 -0.23825672268867493 0.27861112356185913 0.36888179183006287 -0.15738511085510254 0.7185797691345215 0.27621209621429443 -0.6036811470985413 -0.45056986808776855 -0.5393466949462891 0.2687600255012512 -0.10728628188371658 0.05666845291852951 0.5025854110717773 0.08330129086971283 0.3295651078224182 -0.15213236212730408 0.7758055925369263 -0.2492339313030243 0.08731476217508316 0.11712756007909775 -0.22839400172233582 -0.18574732542037964 -0.44516581296920776 -0.6447928547859192 0.3567681312561035 -0.14721950888633728 0.1335158795118332 0.39761900901794434 -0.6051636934280396 0.5259308815002441 0.49736419320106506 -0.2306516021490097 0.0389426052570343 0.42600545287132263 0.2336978316307068 0.07589159905910492 -0.0806029886007309 -0.3996923565864563 -0.034810084849596024 -0.23793374001979828 -0.3119663894176483 0.5447251796722412 0.6568688750267029 0.5155019164085388 -0.04289963096380234 0.2999350428581238 -0.16018687188625336 -0.371443510055542 -0.06522785127162933 -0.37357354164123535 -0.09309688210487366 -0.598724365234375 0.07986424118280411 -0.16206493973731995 -0.053491752594709396 0.506525456905365 -0.2759762704372406 -0.3180820047855377 -0.6287893056869507 -0.2943803668022156 0.08929382264614105 0.40626072883605957 0.5296395421028137 0.17633605003356934 0.5523546934127808 -0.2409489005804062 -0.3984212279319763 0.371468186378479 0.3167147636413574 -0.034214965999126434 -0.26822659373283386 -0.3183075487613678 0.6274732947349548 0.5494340658187866 -0.4624253809452057 -0.6999821662902832 -0.7124707698822021 0.2857465445995331 -0.2532850503921509 0.5131785273551941 0.19841034710407257 -0.5585127472877502 -0.047735605388879776 0.13933226466178894 -0.09610141813755035 -0.10081328451633453 0.002911962568759918 -0.4534379243850708 0.28655290603637695 -0.08593986928462982 0.5309516191482544 0.3766016662120819 -0.016913359984755516 0.43341442942619324 -0.1980443149805069 0.8106313943862915 0.5095371603965759 0.5801334977149963 -0.3183121979236603 -0.28374600410461426 0.5003851652145386 0.2905814051628113 0.3872084617614746 -0.51079922914505 0.6606883406639099 0.10221569240093231
Image_face0013.jpg: -0.0696711540222168 -0.34573686122894287 -0.22523334622383118 -0.4438619613647461 0.42762017250061035 -0.03233208507299423 0.044169310480356216 -0.20268528163433075 0.038797467947006226 0.16035956144332886 0.3511388897895813 -0.33712539076805115 0.034326255321502686 -0.5260776877403259 -0.08991573750972748 0.4721415638923645 0.2403496354818344 -0.39152467250823975 0.2303609699010849 -0.6127773523330688 0.12463273108005524 0.18579646944999695 -0.26127734780311584 -0.021466650068759918 0.21961046755313873 -0.1322825849056244 0.5917268395423889 0.43005818128585815 -0.19225163757801056 0.005600007250905037 -0.3152371048927307 0.3469715118408203 0.10575809329748154 -0.1408652812242508 0.4913119673728943 -0.30105891823768616 0.37555399537086487 0.05757785588502884 0.5027778148651123 0.060131367295980453 0.30180326104164124 0.049230437725782394 -0.13275828957557678 -0.23007360100746155 -0.44427669048309326 -0.41298046708106995 0.07128465175628662 -0.1463330090045929 0.4085216522216797 0.3361784517765045 -0.4827827215194702 0.35189786553382874 0.2814120948314667 -0.34617477655410767 0.061577919870615005 0.3206653296947479 0.4172191023826599 0.1437239795923233 -0.21632009744644165 -0.8191146850585938 -0.37096932530403137 -0.3796285390853882 -0.1440606266260147 0.7513235211372375 -0.04880989342927933 0.5811772346496582 0.30614566802978516 0.08290837705135345 0.21691322326660156 -0.5757381916046143 -0.026084933429956436 -0.4671925902366638 0.16362839937210083 -0.450533390045166 -0.06198473647236824 -0.10083487629890442 0.02013556659221649 0.515677809715271 -0.25146329402923584 -0.37248313426971436 -0.7012927532196045 -0.1472625583410263 0.24133087694644928 0.224534809589386 0.3865852653980255 0.16561496257781982 0.4167977273464203 -0.15063802897930145 -0.504298210144043 0.7957575917243958 0.3153004050254822 0.11616136878728867 0.07944054901599884 0.042426008731126785 0.6912329792976379 0.1883404552936554 -0.08153675496578217 -0.4437195062637329 -0.7995169758796692 0.051945701241493225 -0.24955424666404724 0.5941529870033264 0.2896254360675812 -0.44366419315338135 -0.024271756410598755 0.15726983547210693 -0.06795082986354828 0.1438695192337036 -0.2485528439283371 -0.360965371131897 0.21044565737247467 0.16074199974536896 0.3965581953525543 0.4692116379737854 0.0033442676067352295 0.21104678511619568 0.16673219203948975 0.5073550939559937 0.2622765004634857 0.0689920037984848 -0.21398600935935974 -0.009189529344439507 0.3770250678062439 0.12017203867435455 0.3253464698791504 -0.4313615560531616 0.2381773442029953 0.13182944059371948
Image_face0014.jpg: -0.09189113974571228 -0.36678290367126465 -0.18125656247138977 -0.4456280469894409 0.2716235816478729 -0.13467486202716827 0.135249063372612 -0.2554844617843628 0.048464566469192505 0.05083925649523735 0.4184260070323944 -0.3723738193511963 -0.050986431539058685 -0.5661150813102722 0.04036794602870941 0.4663560390472412 0.30530667304992676 -0.3356313705444336 0.19733595848083496 -0.6049721837043762 -0.0805344358086586 0.09168972074985504 -0.22308149933815002 -0.07303551584482193 0.2789589464664459 -0.12416522949934006 0.7001781463623047 0.4200936257839203 -0.2584356665611267 0.031343013048172 -0.3472462296485901 0.29130348563194275 0.12323980778455734 -0.22102639079093933 0.5645514726638794 -0.22264939546585083 0.4527452290058136 0.07273339480161667 0.5664147138595581 -0.012395504862070084 0.2675485610961914 -0.025540949776768684 -0.30982357263565063 -0.22329135239124298 -0.3242197334766388 -0.523687481880188 0.08000139892101288 -0.15767060220241547 0.3392801880836487 0.34798577427864075 -0.45030003786087036 0.328424334526062 0.33561885356903076 -0.31215381622314453 0.057704102247953415 0.47462937235832214 0.43399742245674133 0.33849892020225525 -0.11823037266731262 -0.7577654719352722 -0.2704855501651764 -0.320453405380249 -0.1660575270652771 0.7846888899803162 0.1337813138961792 0.5771836638450623 0.3025662302970886 0.07319441437721252 0.15942808985710144 -0.5681571960449219 -0.1446782797574997 -0.4861051142215729 0.229149729013443 -0.5076366066932678 -0.22981810569763184 -0.11735820770263672 -0.13883298635482788 0.3628038465976715 -0.19197681546211243 -0.543213427066803 -0.6205311417579651 -0.15765053033828735 0.17659404873847961 0.3057459890842438 0.43201491236686707 -0.13771280646324158 0.5454546809196472 -0.16510048508644104 -0.5799041986465454 0.7189540863037109 0.18926143646240234 0.11820098012685776 -0.045859746634960175 -0.10284631699323654 0.4198867678642273 0.18825802206993103 -0.08837765455245972 -0.5331102013587952 -0.7349547743797302 0.11496134847402573 -0.2898729145526886 0.7201268672943115 0.2959539294242859 -0.4814128279685974 0.13751834630966187 0.26033157110214233 -0.045985106378793716 0.07207407057285309 -0.12640483677387238 -0.4707387089729309 0.16798847913742065 0.20509402453899384 0.550521969795227 0.35384178161621094 -0.02827415056526661 0.2684401869773865 0.1755715161561966 0.6027730703353882 0.3491789400577545 0.26333481073379517 -0.1561088263988495 -0.05989696830511093 0.42955631017684937 0.23115575313568115 0.38953691720962524 -0.3672158122062683 0.2981685400009155 0.05166160315275192
Image_face0015.jpg: -0.03762169927358627 -0.43023255467414856 -0.04431045055389404 -0.548027753829956 0.1650436520576477 -0.10036099702119827 0.027914967387914658 -0.27187323570251465 0.021663479506969452 0.06366370618343353 0.3356686532497406 -0.19761352241039276 -0.02868083491921425 -0.4055822789669037 0.1060776337981224 0.3671985864639282 0.3128712773323059 -0.3437822461128235 0.2931484878063202 -0.5127443671226501 -0.23600858449935913 -0.027866609394550323 -0.35002127289772034 0.08433625847101212 0.2753364145755768 0.11431888490915298 0.7660408020019531 0.4130459725856781 -0.13180209696292877 -0.035726480185985565 -0.24053940176963806 0.4081469774246216 0.13772869110107422 -0.16133791208267212 0.5035932660102844 -0.31550681591033936 0.49903643131256104 0.09708338975906372 0.5950102210044861 0.05040665343403816 0.24749433994293213 -0.027528684586286545 -0.1121511310338974 -0.12426632642745972 -0.4457991123199463 -0.4509941041469574 0.03785885497927666 -0.2288147509098053 0.26984548568725586 0.17269854247570038 -0.15311916172504425 0.2538589537143707 0.40312430262565613 -0.38321101665496826 0.2341471165418625 0.4044271409511566 0.38035744428634644 0.31613725423812866 0.015763409435749054 -0.7122402191162109 -0.17301097512245178 -0.20253707468509674 -0.18504901230335236 0.7460329532623291 0.03441876918077469 0.6690057516098022 0.25372493267059326 0.07711200416088104 0.24550366401672363 -0.44877344369888306 -0.12345834076404572 -0.5695425271987915 0.23503486812114716 -0.4641401171684265 -0.303842693567276 0.03376426547765732 -0.14671599864959717 0.2369442880153656 -0.1600828617811203 -0.6044029593467712 -0.5663607120513916 -0.17092624306678772 0.09501577913761139 0.4128432273864746 0.37823736667633057 -0.28231534361839294 0.5953918695449829 -0.1456204056739807 -0.5326941013336182 0.6087400317192078 0.003920994699001312 -0.08879480510950089 -0.11179803311824799 -0.181600421667099 0.5252557396888733 0.14234788715839386 0.08565428853034973 -0.47163400053977966 -0.6133899688720703 0.05286094546318054 -0.2467290312051773 0.5651379823684692 0.23797950148582458 -0.34716305136680603 0.016147829592227936 0.3507729172706604 -0.08341005444526672 0.011563584208488464 -0.14576461911201477 -0.4765554368495941 0.28141772747039795 0.1720164567232132 0.505601167678833 0.14767508208751678 -0.02286130003631115 0.33646202087402344 0.0427071750164032 0.6000657081604004 0.421468585729599 0.11847993731498718 -0.12475591152906418 -0.06663798540830612 0.43841230869293213 0.2590878903865814 0.4597373604774475 -0.3242335319519043 0.39288508892059326 0.041879892349243164
Image_face0016.jpg: -0.05966816842556 -0.3003747761249542 -0.19040539860725403 -0.4323858320713043 0.3788990080356598 0.14889609813690186 0.14768336713314056 -0.1929692029953003 0.10323279350996017 0.11025451123714447 0.38126328587532043 -0.3245299458503723 0.040496110916137695 -0.5612402558326721 -0.09690926969051361 0.48465967178344727 0.22332046926021576 -0.4411543011665344 0.21310698986053467 -0.5919553637504578 0.13870592415332794 0.14896945655345917 -0.22504380345344543 0.04122307524085045 0.17861267924308777 -0.16117766499519348 0.6460545063018799 0.42565619945526123 -0.24744631350040436 -0.005233705975115299 -0.346515417098999 0.36302661895751953 0.026205971837043762 -0.1959579885005951 0.4952054023742676 -0.32996219396591187 0.1005057618021965 0.1045827716588974 0.6166611313819885 0.016053421422839165 0.25646767020225525 -0.1611538827419281 -0.20836767554283142 -0.32064563035964966 -0.3347087800502777 -0.5354204177856445 0.15528930723667145 -0.13151776790618896 0.4144105315208435 0.3096087574958801 -0.40069252252578735 0.46137747168540955 0.31181952357292175 -0.4040629267692566 0.09424813091754913 0.39910826086997986 0.24724547564983368 0.08027403056621552 -0.207916721701622 -0.694401204586029 -0.3687988519668579 -0.3991396427154541 -0.0993015468120575 0.6121387481689453 0.09550760686397552 0.4301684498786926 0.23919439315795898 0.17865051329135895 0.052419401705265045 -0.4028429090976715 -0.08169005066156387 -0.4507124423980713 0.3155072033405304 -0.422831654548645 -0.1413986086845398 -0.14592324197292328 -0.013814970850944519 0.44216758012771606 -0.24908846616744995 -0.3844570517539978 -0.6062231659889221 -0.1718084067106247 0.27006545662879944 0.3242300748825073 0.4151298999786377 0.12877726554870605 0.5971910953521729 -0.34519004821777344 -0.5328311920166016 0.6323227882385254 0.3575339913368225 0.1326928287744522 0.01930200681090355 -0.0983126237988472 0.6740952730178833 0.1511797457933426 -0.10234518349170685 -0.396075963973999 -0.8044829368591309 0.06869379431009293 -0.25223761796951294 0.6584734320640564 0.235310360789299 -0.34047731757164 -0.046385351568460464 0.09765775501728058 -0.024199068546295166 0.15130552649497986 -0.15720319747924805 -0.36381104588508606 0.20207156240940094 0.1500890851020813 0.47869452834129333 0.37520310282707214 0.005719011649489403 0.19609487056732178 0.18227742612361908 0.6847808361053467 0.18941134214401245 0.07522279024124146 -0.17142078280448914 0.07468412071466446 0.49780136346817017 0.29470157623291016 0.31135520339012146 -0.4149472415447235 0.20062272250652313 0.12769190967082977
Image_face0017.jpg: -0.05026349425315857 -0.38345515727996826 -0.28842321038246155 -0.44212937355041504 0.3290933072566986 -0.21265028417110443 0.07139082252979279 -0.20210449397563934 0.055188603699207306 0.0529305525124073 0.3619333505630493 -0.35212475061416626 -0.08982735127210617 -0.5680909156799316 0.01595475524663925 0.40830880403518677 0.19757109880447388 -0.35291045904159546 0.19724151492118835 -0.691148579120636 -0.2034485936164856 0.12530717253684998 -0.28869691491127014 0.0567244216799736 0.2778856158256531 -0.11713691800832748 0.7121836543083191 0.41760584712028503 -0.28213465213775635 -0.005970814265310764 -0.3834163546562195 0.40325528383255005 0.09725799411535263 -0.21268779039382935 0.5122164487838745 -0.19866664707660675 0.4286300837993622 -0.023204684257507324 0.5382516980171204 -0.019772537052631378 0.21715015172958374 0.039168909192085266 -0.25116854906082153 -0.17040151357650757 -0.3597019910812378 -0.4610332250595093 0.14716553688049316 -0.10816739499568939 0.25499916076660156 0.40881192684173584 -0.4246387481689453 0.32000479102134705 0.3875739872455597 -0.2502868175506592 0.07254989445209503 0.39995455741882324 0.3717418611049652 0.24105754494667053 -0.1001252681016922 -0.7162034511566162 -0.2713889479637146 -0.3551509380340576 -0.21079248189926147 0.771998405456543 0.253029465675354 0.673224687576294 0.2715803384780884 0.15919695794582367 0.15969493985176086 -0.5710175037384033 -0.13813717663288116 -0.5271786451339722 0.1478409618139267 -0.5289244651794434 -0.17191281914710999 -0.10294878482818604 -0.11833515763282776 0.4471334218978882 -0.2111348807811737 -0.5342230200767517 -0.6381173133850098 -0.15642161667346954 0.1290430873632431 0.3438420593738556 0.4302121102809906 -0.13653621077537537 0.4777766764163971 -0.19686004519462585 -0.5290540456771851 0.7098000049591064 0.29594340920448303 0.0838116854429245 -0.10644752532243729 -0.15840700268745422 0.48028820753097534 0.28666993975639343 -0.11127325892448425 -0.5631751418113708 -0.803347110748291 0.12079567462205887 -0.3260185718536377 0.6424937844276428 0.3237972855567932 -0.552478015422821 0.015015847980976105 0.22724060714244843 -0.12390361726284027 0.11915050446987152 -0.11649475246667862 -0.48341718316078186 0.1946372389793396 0.14860635995864868 0.48818808794021606 0.3882572054862976 0.004728471860289574 0.3093406558036804 0.09905596077442169 0.5593757629394531 0.36156708002090454 0.2936052978038788 -0.20657426118850708 -0.1524120718240738 0.4203736186027527 0.20955584943294525 0.47425025701522827 -0.4761098623275757 0.3426614999771118 0.01618162915110588
Image_face0018.jpg: 0.042309947311878204 -0.28551071882247925 -0.2817299962043762 -0.46574896574020386 0.2155207097530365 -0.08879594504833221 0.04835277423262596 -0.2909353971481323 0.11666872352361679 -0.037734054028987885 0.23228657245635986 -0.2725028693675995 -0.09912624210119247 -0.5745375156402588 0.08565257489681244 0.2150598168373108 0.28226593136787415 -0.2682439088821411 0.1865663230419159 -0.6260694265365601 -0.15607787668704987 0.07176695019006729 -0.37886232137680054 -0.010512180626392365 0.218118816614151 -0.013610564172267914 0.666445791721344 0.3039495646953583 -0.38163959980010986 -0.031112153083086014 -0.2806291878223419 0.37902453541755676 0.035099904984235764 -0.09688378125429153 0.5490511059761047 -0.27457866072654724 0.3792528808116913 0.01402176171541214 0.6562464237213135 -0.047369763255119324 0.16528144478797913 0.12226737290620804 -0.11702932417392731 -0.2854638397693634 -0.3941560685634613 -0.437367707490921 0.06465959548950195 -0.12394902110099792 0.24711914360523224 0.2773702144622803 -0.1767124980688095 0.2578114867210388 0.4527445435523987 -0.40139466524124146 0.24734756350517273 0.3950563669204712 0.3055671155452728 0.08791793882846832 -0.04931452125310898 -0.8211426138877869 -0.16690513491630554 -0.26333221793174744 -0.153919979929924 0.8594545125961304 0.23888486623764038 0.6600960493087769 0.20762968063354492 0.003464998211711645 0.08477262407541275 -0.43489617109298706 0.06242348998785019 -0.605209231376648 0.28571271896362305 -0.7100845575332642 -0.09356957674026489 -0.06146573647856712 -0.13568715751171112 0.46008145809173584 -0.24526196718215942 -0.6105748414993286 -0.5274016857147217 -0.10486353933811188 0.029363591223955154 0.5112847685813904 0.40290915966033936 -0.13227811455726624 0.5078712701797485 -0.3230445384979248 -0.5900956392288208 0.6086852550506592 0.22690236568450928 0.049375981092453 -0.22914056479930878 -0.11742732673883438 0.47803956270217896 0.24805940687656403 0.06211487576365471 -0.5217193365097046 -0.720280647277832 0.15210141241550446 -0.2770349383354187 0.5931358933448792 0.31703394651412964 -0.3751146197319031 0.014203004539012909 0.26058709621429443 -0.19127632677555084 0.09528433531522751 -0.21495462954044342 -0.4543249011039734 0.2088773548603058 0.128204807639122 0.38503143191337585 0.41332682967185974 -0.03099171258509159 0.3495886027812958 -0.16421976685523987 0.6413589715957642 0.35618823766708374 0.20549365878105164 -0.20409348607063293 -0.23571962118148804 0.4834737777709961 0.22850193083286285 0.3456445336341858 -0.4945077896118164 0.32656314969062805 -0.08341693878173828
Image_face0019.jpg: -0.03125225007534027 -0.3562118411064148 -0.2357957363128662 -0.481546014547348 0.412075936794281 0.06524965167045593 0.09437087178230286 -0.12947562336921692 0.07727041840553284 0.1638934314250946 0.3711494207382202 -0.3976393938064575 0.03599816560745239 -0.502693235874176 -0.09590467810630798 0.44556087255477905 0.12467342615127563 -0.4539757966995239 0.15089140832424164 -0.6315177083015442 0.18535128235816956 0.2059461921453476 -0.11711909621953964 0.015715371817350388 0.2917883098125458 -0.233320415019989 0.6170576214790344 0.36053556203842163 -0.36265623569488525 -0.15892276167869568 -0.38732290267944336 0.38713338971138 0.08910162001848221 -0.07508137822151184 0.4350045621395111 -0.2730993330478668 0.28578975796699524 -0.06489401310682297 0.5270401239395142 0.006632927805185318 0.2492629438638687 -0.02655687928199768 -0.14404186606407166 -0.30303460359573364 -0.35299116373062134 -0.4457688629627228 0.2012505829334259 -0.08962816745042801 0.4093562960624695 0.3854888081550598 -0.6401798725128174 0.38382434844970703 0.232820063829422 -0.3515315055847168 0.030687402933835983 0.2475724071264267 0.3995850384235382 0.19975215196609497 -0.25047338008880615 -0.7330307960510254 -0.3359562158584595 -0.44436508417129517 -0.16674822568893433 0.7355285882949829 0.12071198225021362 0.4282034635543823 0.29098576307296753 0.1425919234752655 0.10419372469186783 -0.5693321228027344 -0.14461538195610046 -0.4318922162055969 0.1353752464056015 -0.4989505410194397 -0.033873703330755234 -0.25381889939308167 0.012291945517063141 0.48376429080963135 -0.25701138377189636 -0.30702364444732666 -0.6929096579551697 -0.18742692470550537 0.338458389043808 0.23458683490753174 0.36674878001213074 0.23386362195014954 0.4166414141654968 -0.24364250898361206 -0.4317069351673126 0.6747509837150574 0.40977612137794495 0.08766596019268036 0.027404364198446274 -0.06779943406581879 0.805327832698822 0.2648344039916992 -0.2630656659603119 -0.44566166400909424 -0.868421196937561 0.11093532294034958 -0.21202407777309418 0.5441256761550903 0.19987842440605164 -0.43048742413520813 -0.10949437320232391 0.0885486900806427 -0.08065871894359589 0.11333094537258148 -0.1950957179069519 -0.37887316942214966 0.10277554392814636 0.12004633247852325 0.4685786962509155 0.5108097195625305 0.026027200743556023 0.1723630577325821 0.1426931768655777 0.5297139883041382 0.275041788816452 0.15213419497013092 -0.2639104425907135 -0.028718765825033188 0.38506263494491577 0.21585121750831604 0.348660409450531 -0.531339704990387 0.31051284074783325 0.21147562563419342
Image_face0020.jpg: -0.025869272649288177 -0.17801937460899353 -0.17294690012931824 -0.5582297444343567 0.34319356083869934 0.2808186709880829 0.06543368101119995 -0.15809214115142822 0.04607527703046799 0.17130590975284576 0.4102943241596222 -0.3171810507774353 -0.08583244681358337 -0.4679732024669647 -0.002756178379058838 0.3725137710571289 0.12555529177188873 -0.32573962211608887 0.2649839520454407 -0.6285853981971741 -0.08035686612129211 0.23570430278778076 -0.17207226157188416 0.17313489317893982 0.20104169845581055 -0.12025920301675797 0.5540062785148621 0.3106003403663635 -0.3259246349334717 -0.22113198041915894 -0.2738342583179474 0.24803020060062408 0.09026074409484863 -0.15523041784763336 0.5409359931945801 -0.21014948189258575 0.22420504689216614 0.12416398525238037 0.6948392391204834 -0.12109990417957306 0.21090126037597656 -0.12283807247877121 -0.11691375076770782 -0.3220285475254059 -0.3731801211833954 -0.5502225160598755 0.087079256772995 -0.17213945090770721 0.39562684297561646 0.2669394314289093 -0.24447084963321686 0.3972055912017822 0.42702174186706543 -0.449316143989563 0.1636524349451065 0.4757522940635681 0.053931012749671936 0.030969787389039993 -0.09362304955720901 -0.719150960445404 -0.13846805691719055 -0.35534578561782837 -0.07082903385162354 0.6842082142829895 0.1661817729473114 0.4149359464645386 0.1331203281879425 0.16556932032108307 0.08159690350294113 -0.3599240779876709 -0.12440145015716553 -0.4442916214466095 0.22748644649982452 -0.530616819858551 -0.10045702755451202 -0.11843542754650116 -0.13717728853225708 0.537569522857666 -0.21996283531188965 -0.3407386541366577 -0.5609979629516602 -0.13355644047260284 0.06801804900169373 0.5015671849250793 0.37086132168769836 0.07733802497386932 0.6089115142822266 -0.331882119178772 -0.49837228655815125 0.40380921959877014 0.3014912009239197 0.14440955221652985 -0.04959869384765625 -0.0370524525642395 0.7232793569564819 0.10846777260303497 -0.16752424836158752 -0.5204218626022339 -0.6379111409187317 0.10577865689992905 -0.35349977016448975 0.62925785779953 0.20789337158203125 -0.3299572169780731 -0.09867456555366516 0.1026945412158966 -0.11869499087333679 0.06890023499727249 -0.2673249840736389 -0.47910866141319275 0.21239878237247467 0.16035522520542145 0.4299660623073578 0.47730469703674316 -0.06582988798618317 0.39006307721138 0.12830767035484314 0.6495236754417419 0.13636943697929382 0.33822551369667053 -0.3950747549533844 -0.05329854041337967 0.5757349133491516 0.34543290734291077 0.2688089609146118 -0.3800418972969055 0.3570556640625 0.05518708378076553
Image_face0021.jpg: -0.7936927080154419 0.7073076963424683 -0.8660223484039307 -0.3062809109687805 0.21817906200885773 0.9080827832221985 -0.5118933916091919 0.15987972915172577 -0.20803314447402954 -0.6875720620155334 0.11116956919431686 -0.48102059960365295 -0.03808748722076416 0.0758107602596283 0.271216481924057 -0.7998979091644287 0.042208507657051086 0.7192847728729248 -0.5956326127052307 -0.7530537843704224 -0.2623380124568939 -0.44798174500465393 -0.3776073157787323 -0.8191838264465332 -0.06106652691960335 0.2311309576034546 -0.11979164183139801 0.660910964012146 -1.734373688697815 -0.25269824266433716 0.03701000660657883 1.0442966222763062 0.5589232444763184 0.24998977780342102 1.0726063251495361 -0.5394834280014038 1.3903173208236694 -1.2894508838653564 1.5704314708709717 -1.288819432258606 0.4544544517993927 0.5566245913505554 -0.20737510919570923 -0.3690440058708191 0.19320133328437805 -0.2979618012905121 0.5841816067695618 -1.0076286792755127 0.591482937335968 -0.08351932466030121 0.9714094996452332 -0.15590590238571167 1.1955150365829468 -1.4531368017196655 1.292038917541504 0.7809687852859497 0.20767246186733246 -1.4561021327972412 1.4192534685134888 -0.525044858455658 1.2806003093719482 0.7222118377685547 0.3986532986164093 0.6866555213928223 0.5597633719444275 -0.3217388987541199 -0.364215224981308 -0.18424808979034424 0.8343198895454407 -0.5079852342605591 0.024331171065568924 0.3188164532184601 -1.455987572669983 -1.0733239650726318 0.26926496624946594 0.8316544890403748 -0.30857017636299133 0.19559308886528015 0.9771159291267395 -0.6667053699493408 0.35804498195648193 0.6398676633834839 -0.3290964663028717 1.199277639389038 0.9517877101898193 -0.04369572550058365 0.34180518984794617 0.21822212636470795 -1.117134690284729 0.02301969937980175 -1.0136666297912598 0.36352428793907166 -1.9258254766464233 0.9289219379425049 0.13270831108093262 0.1535448431968689 0.38642773032188416 -1.3964548110961914 -0.021623533219099045 0.8536041378974915 -0.23715601861476898 0.046730153262615204 -1.0735743045806885 -0.8149651288986206 -0.9594599008560181 0.42510324716567993 -1.322877049446106 -0.10360656678676605 -0.9531095027923584 0.3293691873550415 -0.33408957719802856 0.13685420155525208 -0.6880433559417725 0.2705566883087158 -0.4274018406867981 1.4150464534759521 -0.3255402743816376 -0.4487496614456177 -0.6492611765861511 0.9671974182128906 -0.0752963051199913 -0.2607021927833557 1.3654004335403442 0.2162867784500122 -0.4446025490760803 -0.9779724478721619 0.9717946648597717 -1.2965196371078491
Image_face0022.jpg: -0.07130180299282074 -0.15602707862854004 -0.3435981273651123 -0.7093102335929871 0.5482478737831116 0.3418246805667877 0.060355041176080704 0.28857019543647766 0.2003042995929718 0.08407554030418396 0.726646363735199 -0.35048073530197144 -0.14548499882221222 -0.6239185333251953 0.10900462418794632 0.3872588872909546 -0.1803167462348938 -0.6106553673744202 0.12818267941474915 -0.571292519569397 -0.05300586298108101 0.2892201542854309 -0.1962231695652008 0.5228455066680908 0.3098113238811493 0.010610949248075485 0.7113857269287109 0.35606908798217773 -0.5221112370491028 -0.41453397274017334 -0.3634452223777771 0.3176730275154114 -0.03740187734365463 0.07038532942533493 0.3586239218711853 -0.07447558641433716 0.05946827679872513 -0.08325714617967606 0.7770331501960754 -0.22874435782432556 0.07492353022098541 -0.2347857654094696 -0.27593794465065 -0.49608874320983887 -0.35966235399246216 -0.5993143916130066 0.3384478688240051 -0.12312483787536621 0.36390769481658936 0.16914066672325134 -0.30652403831481934 0.6096422672271729 0.4519136846065521 -0.40328437089920044 0.02022714354097843 0.3690873682498932 0.034802455455064774 -0.1031988114118576 -0.22855854034423828 -0.38498780131340027 -0.04788919538259506 -0.1698664128780365 -0.18602997064590454 0.6144102811813354 0.5163140892982483 0.1288440078496933 0.010125838220119476 0.2326735407114029 -0.1352793276309967 -0.30623260140419006 -0.017144203186035156 -0.5088956356048584 0.15905353426933289 -0.3954034447669983 0.029242856428027153 -0.17866994440555573 -0.03550384193658829 0.7753353118896484 -0.17868691682815552 -0.11346951127052307 -0.7146475315093994 -0.31826767325401306 0.07434570789337158 0.3496655523777008 0.42540523409843445 0.2254367172718048 0.6964921951293945 -0.2926676273345947 -0.14619740843772888 0.11880272626876831 0.44571247696876526 0.15755406022071838 -0.10933616012334824 -0.17256075143814087 1.0755538940429688 0.2721060812473297 -0.39072418212890625 -0.5818708539009094 -0.7630447149276733 0.1705203801393509 -0.13682016730308533 0.452409029006958 0.10059633105993271 -0.4031382203102112 -0.06345672160387039 0.12533371150493622 0.037723083049058914 -0.13946093618869781 -0.08714060485363007 -0.352657675743103 0.08624432981014252 -0.0534479022026062 0.47710588574409485 0.2702483832836151 0.094992995262146 0.4699520170688629 -0.13629600405693054 0.8426827192306519 0.31237655878067017 0.44666922092437744 -0.5744262933731079 0.031050410121679306 0.5308720469474792 0.6197323799133301 0.46352332830429077 -0.5494130849838257 0.46120747923851013 0.1413048505783081
Image_face0023.jpg: 0.06889460980892181 0.015832513570785522 -0.34228071570396423 -0.9197090268135071 0.5926740765571594 1.1557375192642212 0.02858762815594673 0.5350889563560486 -0.184280127286911 -0.2473715990781784 0.9930605292320251 -0.16583524644374847 0.4255325198173523 -0.05785614252090454 -0.2648438513278961 0.35748767852783203 -0.006734631955623627 -0.6611284017562866 0.4639338552951813 0.5389243364334106 -0.058877479285001755 0.66880863904953 -0.08231063187122345 -0.35380882024765015 0.07105723023414612 -0.5262241959571838 -0.5692225694656372 0.5561569333076477 -0.822191596031189 -1.0481895208358765 -0.6535426378250122 -0.0802202969789505 0.3309679627418518 -0.43343386054039 0.3649078607559204 0.4591764807701111 0.49313026666641235 -0.016764245927333832 0.25469985604286194 -0.49958714842796326 0.27775683999061584 0.21691574156284332 -0.4038364589214325 -0.2963879704475403 -0.5029573440551758 -1.3326036930084229 0.2343648076057434 0.5604411363601685 0.5942389965057373 0.5689427852630615 -0.07242061197757721 0.3658806383609772 -0.18034392595291138 -0.7517818212509155 -0.37032878398895264 0.20791679620742798 -0.37257641553878784 0.18595659732818604 0.29079943895339966 -0.13070142269134521 0.33197787404060364 -0.06480484455823898 0.24707485735416412 0.6369333267211914 0.08156675100326538 0.07505308091640472 0.049110397696495056 0.3152617812156677 0.9120627045631409 -0.15445619821548462 -0.6845136284828186 -0.572614848613739 -0.6196747422218323 -0.18553762137889862 -0.10537309944629669 0.020867880433797836 0.1677958071231842 0.23504340648651123 0.04130912572145462 0.3956100344657898 -0.6003384590148926 -0.28140079975128174 0.013406660407781601 0.8230631351470947 0.5025596022605896 0.11030340194702148 1.3273913860321045 -0.2895311713218689 0.03512982279062271 0.22615186870098114 0.27627110481262207 -0.10210991650819778 0.08092871308326721 -0.07668554782867432 0.2517194151878357 0.23651893436908722 -0.18432757258415222 -1.3321539163589478 -0.8175210952758789 0.8100559115409851 -0.3207911252975464 0.3922816812992096 -0.20912855863571167 -0.19346389174461365 -0.5195654034614563 -0.2176218032836914 0.5296404957771301 -0.6436054706573486 0.2369329333305359 0.030088307335972786 0.35035252571105957 -0.21210797131061554 0.42626601457595825 1.0839924812316895 0.10308714210987091 0.025619372725486755 0.1764453649520874 0.574894368648529 0.06197516620159149 0.2528862953186035 -0.721647322177887 0.6936726570129395 0.1181267574429512 0.8326120972633362 0.3903352618217468 -0.567250669002533 0.33088064193725586 0.07416767627000809
Image_face0024.jpg: -0.03508633375167847 -0.3093917965888977 -0.18676036596298218 -0.41143861413002014 0.3703038990497589 0.12624026834964752 0.16113372147083282 -0.2376425564289093 0.11258790642023087 0.06570121645927429 0.4092503488063812 -0.3465133607387543 0.0062131211161613464 -0.6024409532546997 -0.033336713910102844 0.4406543970108032 0.26484566926956177 -0.40207773447036743 0.19487379491329193 -0.5493049025535583 0.1159026175737381 0.12177905440330505 -0.2894231379032135 -0.010334178805351257 0.2023238241672516 -0.1851174235343933 0.6037707924842834 0.39813023805618286 -0.26217108964920044 -0.0018607061356306076 -0.320949524641037 0.3389544188976288 0.027976136654615402 -0.24985390901565552 0.5021436214447021 -0.3325369358062744 0.17911559343338013 0.08021791279315948 0.5864696502685547 -0.013402272015810013 0.2837027311325073 -0.13715243339538574 -0.22589167952537537 -0.3421455919742584 -0.4000091850757599 -0.5633489489555359 0.19520682096481323 -0.07788341492414474 0.38314640522003174 0.34433266520500183 -0.3664470314979553 0.43821337819099426 0.33231523633003235 -0.40121912956237793 0.1316276341676712 0.3727264702320099 0.2896028459072113 0.16970591247081757 -0.15641915798187256 -0.6646273732185364 -0.3188425600528717 -0.4621381163597107 -0.06481755524873734 0.7298828959465027 0.17906469106674194 0.4723265767097473 0.26989004015922546 0.12563781440258026 0.09026411920785904 -0.4169764816761017 -0.07520470768213272 -0.5722699165344238 0.31844186782836914 -0.44334477186203003 -0.1736547350883484 -0.13758744299411774 0.008448794484138489 0.46396663784980774 -0.26054197549819946 -0.3824074864387512 -0.6397475600242615 -0.18810681998729706 0.27774718403816223 0.34560278058052063 0.39954298734664917 0.07999663054943085 0.6180539131164551 -0.38988667726516724 -0.5593409538269043 0.6448145508766174 0.34114548563957214 0.1159060075879097 -0.024298759177327156 -0.14612632989883423 0.6075428128242493 0.16859230399131775 -0.098947674036026 -0.44724756479263306 -0.8494595289230347 0.09364435076713562 -0.31749236583709717 0.6907631754875183 0.2672070264816284 -0.3024856150150299 -0.01416558027267456 0.11481150984764099 -0.004465424921363592 0.11267552524805069 -0.09394773840904236 -0.3792319595813751 0.13706260919570923 0.16516941785812378 0.5264683961868286 0.3867655396461487 -0.013821342960000038 0.1252059042453766 0.1540306806564331 0.6961836814880371 0.24430838227272034 0.11752547323703766 -0.18463584780693054 0.00246439129114151 0.4908844828605652 0.29426464438438416 0.29918307065963745 -0.37312811613082886 0.2053161859512329 0.1398596316576004
Image_face0025.jpg: -0.06386041641235352 -0.31371110677719116 -0.3451627790927887 -0.4971051514148712 0.2465859055519104 -0.363701730966568 0.0009473487734794617 -0.12217482924461365 0.016142822802066803 0.017262976616621017 0.3853221833705902 -0.4072412848472595 -0.18910127878189087 -0.5855361223220825 0.1518917679786682 0.2993137836456299 0.28553658723831177 -0.3588793873786926 0.16578836739063263 -0.6528846025466919 -0.43189167976379395 0.05158703401684761 -0.35760387778282166 0.15938064455986023 0.23472747206687927 0.03019377961754799 0.7644824385643005 0.44631949067115784 -0.3769010305404663 0.0010592322796583176 -0.37752142548561096 0.3632061779499054 0.022107552736997604 -0.27934715151786804 0.5741361379623413 -0.17696869373321533 0.5674738883972168 0.019140038639307022 0.7608059644699097 -0.003266002982854843 0.16626763343811035 0.015555658377707005 -0.3079978823661804 -0.0313003808259964 -0.40275686979293823 -0.48101064562797546 0.13663507997989655 -0.2271243929862976 0.24883125722408295 0.31733083724975586 -0.24384863674640656 0.37123581767082214 0.4747793674468994 -0.3621026873588562 0.12374883890151978 0.484772264957428 0.4117583632469177 0.2156117558479309 -0.10328955948352814 -0.7331392765045166 -0.17085769772529602 -0.27872851490974426 -0.3033406138420105 0.74346524477005 0.29393327236175537 0.7729418873786926 0.19644014537334442 0.09178207814693451 0.11004110425710678 -0.516089916229248 -0.11999471485614777 -0.4990711510181427 0.29753872752189636 -0.6871159672737122 -0.20664815604686737 0.02707991562783718 -0.25915881991386414 0.4361269474029541 -0.21653038263320923 -0.6500013470649719 -0.6242018342018127 -0.13283151388168335 0.07905565202236176 0.48730525374412537 0.4482083022594452 -0.27970704436302185 0.4173736274242401 -0.20533481240272522 -0.5659958124160767 0.6867477893829346 0.2995743751525879 0.02092522569000721 -0.3274865448474884 -0.14596429467201233 0.3491987884044647 0.2359350174665451 0.046518728137016296 -0.5881221294403076 -0.8155507445335388 0.021092237904667854 -0.2715427279472351 0.6905946135520935 0.2921290397644043 -0.5876011848449707 0.11235368996858597 0.25649935007095337 -0.07399490475654602 0.07955015450716019 -0.07786689698696136 -0.4392279088497162 0.1769612729549408 0.1804930865764618 0.5907727479934692 0.28603169322013855 -0.030368788167834282 0.36745864152908325 -0.008302506059408188 0.5617729425430298 0.4809054732322693 0.33021947741508484 -0.16495394706726074 -0.24357125163078308 0.38660186529159546 0.21845611929893494 0.4493311047554016 -0.6298378705978394 0.3717203438282013 -0.14765667915344238
Image_face0026.jpg: -0.09018658101558685 -0.3468046486377716 -0.1299760639667511 -0.4745788872241974 0.31012284755706787 0.020875101909041405 0.06845565140247345 -0.22050195932388306 0.044418640434741974 0.11062397062778473 0.3021622598171234 -0.3089039623737335 -0.016474824398756027 -0.4166784882545471 -0.0037873685359954834 0.42982780933380127 0.2300860583782196 -0.304686963558197 0.23326778411865234 -0.6124021410942078 0.08205877244472504 0.09713412076234818 -0.23234936594963074 -0.013035431504249573 0.23295444250106812 -0.11099828034639359 0.6192177534103394 0.3688686192035675 -0.2628551125526428 0.0007554646581411362 -0.28225407004356384 0.37429147958755493 0.09322786331176758 -0.07781927287578583 0.5550234317779541 -0.3387168347835541 0.21234285831451416 0.029249168932437897 0.5713557004928589 0.056379590183496475 0.22124385833740234 -0.01970835030078888 -0.1619570255279541 -0.22086714208126068 -0.3703651428222656 -0.45915037393569946 0.09109386801719666 -0.11297851800918579 0.3529995083808899 0.3089614808559418 -0.41625088453292847 0.36293309926986694 0.35176023840904236 -0.35305720567703247 0.20965610444545746 0.27425047755241394 0.4688919484615326 0.21555712819099426 -0.16248543560504913 -0.8375720977783203 -0.28257688879966736 -0.34700387716293335 -0.13200673460960388 0.7315424084663391 0.0547972097992897 0.4809693694114685 0.2789725959300995 0.035820264369249344 0.10212426632642746 -0.4847891628742218 -0.11379876732826233 -0.48821064829826355 0.23261907696723938 -0.48956459760665894 -0.20162823796272278 -0.15172560513019562 -0.04548297077417374 0.3821377456188202 -0.22198858857154846 -0.43251073360443115 -0.596703052520752 -0.19606123864650726 0.23064498603343964 0.31986892223358154 0.40220144391059875 0.07706184685230255 0.5008646845817566 -0.20164889097213745 -0.5276848673820496 0.6743809580802917 0.2542589008808136 0.13090676069259644 -0.07520586252212524 -0.030103616416454315 0.6797468066215515 0.18211592733860016 -0.061470355838537216 -0.4586802124977112 -0.759719729423523 0.039609119296073914 -0.2575010061264038 0.5900719165802002 0.19453872740268707 -0.3339420258998871 0.03613099455833435 0.1723293513059616 -0.13542331755161285 0.1815820336341858 -0.16605404019355774 -0.42038437724113464 0.18590322136878967 0.11697337031364441 0.41740480065345764 0.4505750834941864 -0.05624672770500183 0.20548269152641296 0.1962851583957672 0.5171611309051514 0.3138463795185089 0.05085157975554466 -0.21645990014076233 0.026339298114180565 0.37553298473358154 0.12502829730510712 0.3793708086013794 -0.4467081129550934 0.25166836380958557 0.036552056670188904
Image_face0027.jpg: -0.03110460191965103 -0.28530776500701904 -0.3458428382873535 -0.5131776332855225 0.3552495539188385 -0.23196914792060852 0.1106930524110794 -0.1397547721862793 0.04446883499622345 0.08685392141342163 0.3546082675457001 -0.42167314887046814 -0.055108487606048584 -0.6056654453277588 -0.029968664050102234 0.38582730293273926 0.16500915586948395 -0.33534306287765503 0.2612641751766205 -0.7936285138130188 -0.06283485889434814 0.14179393649101257 -0.24013692140579224 -0.013969995081424713 0.26431381702423096 -0.17359229922294617 0.724011242389679 0.41984838247299194 -0.3813489079475403 0.008762825280427933 -0.5376445055007935 0.25679585337638855 0.06892789155244827 -0.18159112334251404 0.558871328830719 -0.2055593878030777 0.5084220170974731 0.06562336534261703 0.7303493618965149 -0.051296427845954895 0.19217146933078766 0.05864843726158142 -0.22832328081130981 -0.2261180728673935 -0.37046051025390625 -0.41336166858673096 -0.011837437748908997 -0.19597254693508148 0.40210288763046265 0.26368576288223267 -0.4673396944999695 0.44144174456596375 0.3066321611404419 -0.332226037979126 0.01045552920550108 0.5441412925720215 0.37990081310272217 0.12364275753498077 -0.1729140281677246 -0.737329363822937 -0.29330968856811523 -0.2425422966480255 -0.21636290848255157 0.6778160929679871 0.18573293089866638 0.7117006182670593 0.20083078742027283 0.10755268484354019 0.04794152081012726 -0.5135306119918823 0.015723012387752533 -0.33852267265319824 0.15980400145053864 -0.6912043690681458 -0.0031021609902381897 -0.12540113925933838 -0.15597453713417053 0.5453072190284729 -0.25514018535614014 -0.4986361861228943 -0.643886148929596 -0.037136368453502655 0.20331884920597076 0.3118012547492981 0.4205707311630249 0.05256389081478119 0.3392076790332794 -0.16977515816688538 -0.5473201274871826 0.714439868927002 0.4129723310470581 0.2116345912218094 -0.03445795923471451 0.02225763536989689 0.4437996745109558 0.2373134195804596 -0.08383262157440186 -0.6179927587509155 -0.7612468600273132 0.17262856662273407 -0.24943818151950836 0.6208704710006714 0.4160410761833191 -0.5837191343307495 0.03844305872917175 0.18488340079784393 -0.11506201326847076 0.12158462405204773 -0.263482928276062 -0.34499773383140564 0.2560979127883911 0.037177130579948425 0.3991217017173767 0.45907899737358093 0.032631710171699524 0.3122335374355316 0.10165701806545258 0.74098140001297 0.35521137714385986 0.2947695255279541 -0.2023792564868927 -0.038801319897174835 0.43780750036239624 0.18759340047836304 0.2808727025985718 -0.47187677025794983 0.2799159586429596 -0.08155082166194916
Image_face0028.jpg: -0.03982637822628021 -0.2556311786174774 -0.42940786480903625 -0.3958249092102051 0.349324107170105 -0.04787001013755798 0.010918062180280685 -0.03132656216621399 0.10124564915895462 0.06261339783668518 0.46322810649871826 -0.4087744653224945 -0.19068515300750732 -0.7188242673873901 0.11181532591581345 0.3951925039291382 0.3151465952396393 -0.3108271360397339 0.15279759466648102 -0.5156434774398804 -0.1483338326215744 0.15797166526317596 -0.2532113790512085 0.14589551091194153 0.10856901109218597 -0.2059279978275299 0.6031643748283386 0.39606207609176636 -0.4656345248222351 -0.0037941280752420425 -0.1956194043159485 0.28914669156074524 0.1327013522386551 -0.17198336124420166 0.5957562923431396 -0.23214790225028992 0.2883266508579254 0.01788298785686493 0.6950209140777588 0.05326933413743973 0.09319961816072464 -0.05058755725622177 -0.3615242838859558 -0.30178916454315186 -0.3731338083744049 -0.5810245275497437 0.17150218784809113 -0.09081476926803589 0.35229921340942383 0.3172011971473694 -0.3113798499107361 0.3719756007194519 0.47713831067085266 -0.36003589630126953 0.21372269093990326 0.4842437505722046 0.3476853668689728 0.20451508462429047 -0.23123615980148315 -0.8406460881233215 -0.2253582775592804 -0.37732547521591187 -0.17655684053897858 0.7868880033493042 0.37318745255470276 0.4771192669868469 0.3037031292915344 0.1373361349105835 -0.04516405239701271 -0.4687405228614807 -0.023312877863645554 -0.5333579182624817 0.3000645041465759 -0.4929195046424866 -0.17331452667713165 -0.07315009832382202 -0.16278418898582458 0.5428219437599182 -0.3381975591182709 -0.45070087909698486 -0.6444476842880249 -0.21988950669765472 0.12745201587677002 0.41389191150665283 0.4596957564353943 -0.1151687502861023 0.42809781432151794 -0.3531304597854614 -0.6245551109313965 0.555060863494873 0.32893627882003784 0.08173469454050064 -0.36124417185783386 0.012138920836150646 0.4644722640514374 0.0266076922416687 -0.14911451935768127 -0.5061667561531067 -0.8415877819061279 0.06812215596437454 -0.31509488821029663 0.7152937650680542 0.14838796854019165 -0.3998764157295227 0.07807572931051254 0.1740185022354126 -0.05603540688753128 -0.0024034231901168823 -0.12706086039543152 -0.4289809763431549 0.0681009441614151 0.27487266063690186 0.5075833797454834 0.39392003417015076 -0.110061414539814 0.3085845112800598 0.06301505863666534 0.41555431485176086 0.29776236414909363 0.3461483418941498 -0.27022725343704224 -0.14377538859844208 0.3883435130119324 0.16247569024562836 0.3626021146774292 -0.5755259990692139 0.23863907158374786 -0.03856958448886871
Image_face0029.jpg: -0.046932294964790344 -0.2862478196620941 -0.22947129607200623 -0.5816118717193604 0.27319538593292236 -0.09620250761508942 0.0981350690126419 -0.13044318556785583 0.125808984041214 0.07031898200511932 0.4048246741294861 -0.20088641345500946 -0.03141500800848007 -0.5403465032577515 -0.07361669838428497 0.4126676321029663 0.15497800707817078 -0.3552517890930176 0.3119552433490753 -0.673036515712738 -0.04585349187254906 0.0461563840508461 -0.2925686240196228 0.08727764338254929 0.2850234806537628 -0.02814342826604843 0.7580193281173706 0.4375481903553009 -0.28541964292526245 -0.012814177200198174 -0.5364313125610352 0.34882211685180664 -0.03046562895178795 -0.1728358268737793 0.448154479265213 -0.1654384434223175 0.23687556385993958 0.14123034477233887 0.7015488147735596 -0.020558148622512817 0.2209848165512085 -0.03766261413693428 -0.19867128133773804 -0.2749452590942383 -0.36841216683387756 -0.5015555620193481 0.02502446621656418 -0.2189410775899887 0.2784765958786011 0.2378520518541336 -0.38371706008911133 0.5080047845840454 0.3300902545452118 -0.33866214752197266 0.03228414058685303 0.5097883939743042 0.2790552079677582 0.07577541470527649 -0.11486272513866425 -0.6279410719871521 -0.2519855201244354 -0.24676066637039185 -0.1309284269809723 0.578383207321167 0.24002665281295776 0.6090689897537231 0.1696246862411499 0.1360647827386856 0.018843170255422592 -0.39388835430145264 -0.006318504922091961 -0.366176038980484 0.30508953332901 -0.4550745487213135 -0.04601980373263359 -0.1651066541671753 -0.09776928275823593 0.45154106616973877 -0.2127493917942047 -0.5107131600379944 -0.5628534555435181 -0.12159018218517303 0.12769681215286255 0.330590158700943 0.40273022651672363 0.07244424521923065 0.5237815976142883 -0.23985116183757782 -0.48850083351135254 0.7179294228553772 0.33869698643684387 0.13501863181591034 0.0546458400785923 -0.1415761411190033 0.4930828809738159 0.2772533893585205 -0.042306676506996155 -0.48930928111076355 -0.7237542867660522 0.11893417686223984 -0.28553253412246704 0.583573043346405 0.44660836458206177 -0.5118412971496582 0.04125332087278366 0.15377113223075867 -0.08798819780349731 0.18960636854171753 -0.17293299734592438 -0.34332212805747986 0.38829153776168823 0.06443273276090622 0.469349205493927 0.3625510632991791 0.13045544922351837 0.3025318682193756 0.058154135942459106 0.8754599094390869 0.4213356077671051 0.19476746022701263 -0.20979279279708862 0.030076000839471817 0.4508155584335327 0.311700701713562 0.314616858959198 -0.35634148120880127 0.2693088948726654 -0.04151122272014618
Image_face0030.jpg: 0.12559783458709717 -0.29841288924217224 0.023575101047754288 -0.6355850100517273 0.014060886576771736 -0.018183590844273567 0.04104122892022133 -0.22805187106132507 0.05318077653646469 -0.037259314209222794 0.2827743887901306 -0.11083974689245224 0.01207008957862854 -0.3060249984264374 -0.052514076232910156 0.2765725255012512 0.18999123573303223 -0.417954683303833 0.32713785767555237 -0.5216466784477234 -0.173305481672287 -0.053991518914699554 -0.35365191102027893 0.15206196904182434 0.38136911392211914 0.21940922737121582 0.8166326880455017 0.4591539204120636 -0.10721258819103241 -0.16945937275886536 -0.3902890980243683 0.4539736211299896 -0.05680558457970619 -0.23707440495491028 0.28769373893737793 -0.2516612410545349 0.2609916627407074 0.2615339159965515 0.797397792339325 0.1124284416437149 0.18758763372898102 -0.12620963156223297 -0.0700872391462326 -0.26728108525276184 -0.4119420051574707 -0.3263508975505829 -0.061031755059957504 -0.2883113622665405 0.2015000432729721 0.019461560994386673 -0.08125601708889008 0.47179174423217773 0.3513122797012329 -0.4719075560569763 0.199527308344841 0.6411994099617004 0.1754770576953888 0.1112329363822937 0.048625409603118896 -0.4864547848701477 -0.13812199234962463 -0.16107171773910522 -0.1381765902042389 0.534534215927124 0.028272148221731186 0.6050140857696533 0.1497591733932495 -0.012583999894559383 0.08161341398954391 -0.316093385219574 -0.09255093336105347 -0.3958283066749573 0.4835737645626068 -0.48782819509506226 -0.17235568165779114 -0.05173901095986366 -0.22550593316555023 0.2866477966308594 -0.1980750858783722 -0.5938171744346619 -0.3878611922264099 -0.16059336066246033 0.13522203266620636 0.5374372601509094 0.3529333174228668 -0.12934544682502747 0.6454112529754639 -0.3134864270687103 -0.36698609590530396 0.5499035120010376 0.17339856922626495 -0.12782739102840424 0.02574208751320839 -0.35163965821266174 0.5458614230155945 0.28733161091804504 0.17171618342399597 -0.4798634946346283 -0.49956977367401123 -0.0022955574095249176 -0.2628961205482483 0.5445467233657837 0.4549669623374939 -0.36314764618873596 0.030424252152442932 0.14608903229236603 -0.050893280655145645 0.234145849943161 -0.09337228536605835 -0.41266489028930664 0.4673128128051758 0.03376767784357071 0.49139368534088135 0.1152137741446495 0.1762983202934265 0.3953240215778351 -0.03755127638578415 1.0752346515655518 0.4128692150115967 -0.06239873543381691 -0.07147020846605301 0.0012639127671718597 0.47778546810150146 0.45018795132637024 0.308643102645874 -0.2854374647140503 0.22149327397346497 -0.07029058784246445
Image_face0031.jpg: -0.09547299146652222 -0.28905054926872253 0.10814494639635086 -0.5006174445152283 0.1274641752243042 0.27040332555770874 0.09859512746334076 -0.3404836654663086 -0.011239709332585335 0.23240846395492554 0.17459243535995483 -0.04286569356918335 0.1686503291130066 -0.2929953932762146 -0.023450493812561035 0.3679576516151428 0.15024128556251526 -0.292802631855011 0.35161885619163513 -0.523990273475647 0.07756905257701874 0.03705610707402229 -0.2792380750179291 -0.0655512660741806 0.15435528755187988 0.02265673130750656 0.5222037434577942 0.36067530512809753 -0.013961635529994965 -0.1832062304019928 -0.26251548528671265 0.2577607035636902 0.13165998458862305 -0.20795965194702148 0.4631161689758301 -0.44787460565567017 0.36588892340660095 0.22796186804771423 0.565562903881073 -0.10116313397884369 0.36263564229011536 -0.08586498349905014 -0.07331866025924683 -0.2949036955833435 -0.5042145252227783 -0.37688449025154114 0.0379638634622097 -0.19392968714237213 0.330646276473999 0.057091787457466125 -0.32457101345062256 0.3220706284046173 0.23575380444526672 -0.3652695417404175 0.215899258852005 0.3891459107398987 0.28013938665390015 0.28754064440727234 0.09903492033481598 -0.7468511462211609 -0.21207067370414734 -0.1510240137577057 -0.16703952848911285 0.7761356830596924 -0.07176204025745392 0.5843773484230042 0.299746572971344 -0.008271560072898865 0.2515607178211212 -0.3522084355354309 -0.0701545998454094 -0.5293091535568237 0.3881886899471283 -0.2866062819957733 -0.15766887366771698 -0.017632659524679184 -0.08311622589826584 0.369224488735199 -0.08266329765319824 -0.4105949401855469 -0.4610544741153717 -0.3037679195404053 0.08062230050563812 0.28079378604888916 0.2692207396030426 0.022886008024215698 0.617510199546814 -0.14438655972480774 -0.5239048004150391 0.6132014989852905 0.14099062979221344 0.037467680871486664 0.10393688082695007 -0.2992503345012665 0.6560407280921936 0.27701905369758606 0.09427757561206818 -0.38648316264152527 -0.473755419254303 -0.03769079968333244 -0.5173701047897339 0.6022650599479675 0.1804640293121338 -0.21301522850990295 0.04651332646608353 0.25620782375335693 0.05232236906886101 0.025189455598592758 -0.03794471174478531 -0.3451099395751953 0.19109372794628143 0.16846507787704468 0.3067626953125 0.2870529294013977 -0.0985214039683342 0.32202601432800293 0.05805879086256027 0.7032817006111145 0.27145346999168396 -0.023576579988002777 -0.28805556893348694 0.005845814011991024 0.4956026077270508 0.36931556463241577 0.3990299701690674 -0.13870179653167725 0.45606860518455505 0.1204594075679779
Image_face0032.jpg: -0.029555127024650574 -0.2721979022026062 0.19366943836212158 -0.9428643584251404 0.12150918692350388 -0.04488586634397507 -0.09920212626457214 0.18849195539951324 0.27549639344215393 -0.14416126906871796 0.6209973096847534 0.02349012903869152 -0.0796724334359169 -0.43698346614837646 0.05477798357605934 -0.03620406985282898 0.040462832897901535 -0.44816482067108154 0.12744587659835815 -0.401558518409729 -0.23789551854133606 -0.001632151659578085 -0.4244329333305359 0.5707123279571533 0.35757461190223694 0.21082553267478943 0.7239065170288086 0.2691492438316345 -0.31674355268478394 -0.5153648257255554 -0.29827091097831726 0.2382887452840805 -0.32823440432548523 0.040487296879291534 0.19030657410621643 0.07121238112449646 0.02538350224494934 0.16141188144683838 0.7504671812057495 -0.22914552688598633 0.05015570670366287 -0.3116738498210907 -0.06009741127490997 -0.23609615862369537 -0.5693924427032471 -0.6307765245437622 0.21941033005714417 -0.42701175808906555 0.008487798273563385 0.07210247218608856 -0.2333967238664627 0.7041691541671753 0.5427258014678955 -0.7108873128890991 0.19937263429164886 0.574057936668396 0.10214883089065552 -0.10163626819849014 0.10095163434743881 -0.2630099058151245 -6.14561140537262e-05 -0.06073406711220741 -0.16999982297420502 0.5913029313087463 0.5423593521118164 0.39730560779571533 -0.1431775689125061 0.034087296575307846 -0.3900178074836731 0.0006020523142069578 -0.014544405974447727 -0.5976660251617432 0.417248010635376 -0.6245009303092957 -0.0922742486000061 -0.1720282882452011 -0.47547024488449097 0.17133575677871704 -0.32238397002220154 -0.5666472911834717 -0.17173364758491516 -0.3640396296977997 -0.006905864924192429 0.675775945186615 0.5270711779594421 -0.007150188088417053 0.5828140377998352 -0.22290295362472534 -0.2821057438850403 0.2483893781900406 0.172869473695755 -0.20616252720355988 -0.3030317425727844 -0.6460793018341064 0.8188965916633606 0.31557169556617737 -0.081702321767807 -0.5160150527954102 -0.14540937542915344 0.009012928232550621 -0.13476139307022095 0.44916772842407227 0.30802035331726074 -0.3777085244655609 0.02259133756160736 0.33411192893981934 0.11268596351146698 0.05914490669965744 0.08364014327526093 -0.6546080112457275 0.44123584032058716 -0.1003304272890091 0.762702465057373 0.13660117983818054 0.3508927822113037 0.3192686438560486 -0.1850547194480896 1.0981861352920532 0.6547343730926514 0.33258283138275146 -0.11247190088033676 -0.2120710164308548 0.31236469745635986 0.4932151138782501 0.31538480520248413 -0.3957178294658661 0.48666203022003174 -0.01785234734416008
Image_face0033.jpg: -0.06647336483001709 -0.18336978554725647 -0.37714481353759766 -0.5541807413101196 0.01431492529809475 0.34101971983909607 0.10837860405445099 -0.10647797584533691 0.18635714054107666 -0.04624086245894432 0.5380455255508423 -0.09800871461629868 -0.18662530183792114 -0.6514705419540405 0.15468116104602814 0.3651658892631531 0.14773954451084137 -0.43415433168411255 0.15615499019622803 -0.30771201848983765 -0.26678895950317383 0.10022347420454025 -0.5432289242744446 0.20506367087364197 0.19808068871498108 0.03169220685958862 0.5330387353897095 0.3494620621204376 -0.3722144365310669 -0.2215578854084015 -0.16731469333171844 0.2973157465457916 0.03102518618106842 -0.13862869143486023 0.40648534893989563 -0.12802055478096008 0.02740415930747986 0.16896656155586243 0.7643627524375916 -0.1527455598115921 0.18336179852485657 0.0867791622877121 -0.43212082982063293 -0.41991642117500305 -0.48173701763153076 -0.8087689280509949 0.24122774600982666 -0.09413096308708191 0.1858106106519699 0.3246062397956848 -0.1414589285850525 0.27746111154556274 0.5556960105895996 -0.4248653054237366 0.25023704767227173 0.4772529602050781 0.16618366539478302 0.1751174032688141 -0.114733025431633 -0.6010565161705017 -0.0355045460164547 -0.31360775232315063 -0.15377992391586304 0.6974942088127136 0.5123485922813416 0.3867974877357483 0.15744821727275848 0.11700618267059326 0.00895717367529869 -0.31642061471939087 0.009400633163750172 -0.5978106260299683 0.30083686113357544 -0.425445020198822 -0.07354502379894257 -0.04297332838177681 -0.2041829526424408 0.4980463981628418 -0.1511336863040924 -0.21944372355937958 -0.5508376359939575 -0.4681309461593628 -0.04554937034845352 0.43938934803009033 0.4463799297809601 -0.054135218262672424 0.7737609148025513 -0.24750186502933502 -0.4379325807094574 0.3995939791202545 0.267129123210907 -0.17635399103164673 -0.25849655270576477 -0.14498525857925415 0.5510698556900024 0.17067457735538483 -0.23976485431194305 -0.488127738237381 -0.6777865290641785 0.09344048798084259 -0.2478257566690445 0.7013177871704102 0.12154719978570938 -0.2511118948459625 0.12606951594352722 0.10664936900138855 0.0011972486972808838 -0.11626489460468292 -0.025357414036989212 -0.39750969409942627 0.2876732349395752 0.2089509665966034 0.44993364810943604 0.35731542110443115 -0.18377269804477692 0.3586358428001404 -0.19012075662612915 0.6894708275794983 0.3410082161426544 0.3859729468822479 -0.299072802066803 -0.06763684004545212 0.5029749870300293 0.4072727560997009 0.3607163429260254 -0.4064418375492096 0.31226441264152527 0.01526709645986557
Image_face0034.jpg: -0.13146895170211792 -0.3086910843849182 -0.22386133670806885 -0.36802759766578674 0.4483737647533417 0.044395431876182556 0.12964731454849243 -0.26069483160972595 0.09713903814554214 0.12632939219474792 0.3512786626815796 -0.3349345922470093 0.03189976513385773 -0.5030705332756042 -0.01397097110748291 0.47036558389663696 0.26174354553222656 -0.3461839556694031 0.15040253102779388 -0.6227831840515137 0.09079141914844513 0.09346892684698105 -0.2317105531692505 -0.08372900635004044 0.2504720091819763 -0.2205316424369812 0.627483606338501 0.3478470742702484 -0.2832537889480591 0.021411577239632607 -0.30745771527290344 0.29511746764183044 0.12358155101537704 -0.17234806716442108 0.5209906697273254 -0.2817692458629608 0.2753865718841553 0.06061716750264168 0.42803722620010376 0.0010988935828208923 0.31134939193725586 0.004177959635853767 -0.2043905258178711 -0.2184726744890213 -0.3787882626056671 -0.5458430647850037 0.0970262736082077 -0.044557906687259674 0.4402102828025818 0.3543960750102997 -0.5341061949729919 0.32987403869628906 0.32508620619773865 -0.28857916593551636 0.11460545659065247 0.2712762951850891 0.4112960994243622 0.1693088263273239 -0.15393316745758057 -0.7865925431251526 -0.3663342595100403 -0.33451908826828003 -0.14626291394233704 0.7963613271713257 0.09315317869186401 0.5052809119224548 0.22670476138591766 0.11008541285991669 0.1962258219718933 -0.48761045932769775 -0.0822257325053215 -0.4761349558830261 0.1554376184940338 -0.4046686887741089 -0.17737774550914764 -0.16097867488861084 0.035306692123413086 0.4137704074382782 -0.1860143542289734 -0.3895629644393921 -0.6384268403053284 -0.18196040391921997 0.2071208357810974 0.27384838461875916 0.4537525773048401 0.127213254570961 0.538314700126648 -0.2591254711151123 -0.6106435060501099 0.7542248368263245 0.2916533350944519 0.18927320837974548 0.03337870165705681 -0.06641049683094025 0.5497649908065796 0.24618221819400787 -0.12059062719345093 -0.42808622121810913 -0.8489714860916138 0.11168251186609268 -0.33075660467147827 0.631066083908081 0.18836694955825806 -0.39742550253868103 0.031657494604587555 0.1742004007101059 -0.12403042614459991 0.052320696413517 -0.1648014783859253 -0.37641024589538574 0.12513232231140137 0.17085103690624237 0.42261773347854614 0.47246894240379333 -0.08584384620189667 0.20371529459953308 0.15016300976276398 0.4850131571292877 0.2721163332462311 0.17661546170711517 -0.14918914437294006 -0.058333516120910645 0.40512436628341675 0.1455799639225006 0.3412521481513977 -0.3811795711517334 0.3353163003921509 0.15188802778720856
Image_face0035.jpg: -0.8810092210769653 0.24889251589775085 -1.3556612730026245 -0.3158542215824127 0.33634403347969055 0.2105342149734497 0.034215930849313736 0.02689235284924507 0.21588751673698425 -0.6835898756980896 0.4828624725341797 -0.35472360253334045 -0.27635809779167175 -0.6931066513061523 0.43051573634147644 -0.5958194136619568 -0.15348732471466064 0.054021671414375305 -0.2278110384941101 -0.6131313443183899 -0.6333619356155396 -0.03202083334326744 -0.9028810262680054 -0.2050425410270691 0.3341884911060333 0.15261238813400269 0.09549883008003235 0.17764441668987274 -1.4369146823883057 -0.6517278552055359 0.10861611366271973 -0.07546885311603546 -0.24553942680358887 -0.07974553108215332 0.8483229279518127 0.2411033809185028 0.6605917811393738 -0.5619935393333435 1.4891622066497803 -1.1722509860992432 -0.10049816220998764 0.6596754789352417 -0.9750505685806274 -0.4395182430744171 -0.6804076433181763 -0.6620820164680481 0.2928110659122467 -0.3269433081150055 -0.22881564497947693 0.44909998774528503 -0.33049190044403076 0.9905338883399963 1.0807538032531738 -0.6242792010307312 0.6224516034126282 0.9328917264938354 0.4269926846027374 -0.5849452614784241 0.259685754776001 -0.6698288917541504 0.6721103191375732 0.060706689953804016 0.007238101214170456 0.8402503132820129 1.2550899982452393 0.42683160305023193 -0.14721006155014038 -0.23170852661132812 -0.07607993483543396 -0.3728595972061157 0.6311970949172974 -0.22928693890571594 -0.8585643768310547 -1.2809054851531982 -0.029255524277687073 0.4066164493560791 -0.5778698325157166 0.6453478336334229 0.03322917968034744 -0.26927506923675537 -0.13309742510318756 -0.012595634907484055 -0.30036717653274536 1.1596060991287231 1.0887151956558228 -0.1901213526725769 0.21497270464897156 0.23113472759723663 -0.8286923170089722 0.24149984121322632 0.06724582612514496 -0.5439976453781128 -1.37872314453125 0.5250447988510132 -0.2345101237297058 0.6966859102249146 -0.21349108219146729 -0.9007304310798645 -0.06637591123580933 0.5152897834777832 -0.17890186607837677 0.7393583059310913 0.13746047019958496 -0.6848554611206055 -0.000853613018989563 0.3783664107322693 -0.3662944436073303 -0.02460642158985138 0.012657858431339264 -0.6198124885559082 -0.0094032296910882 0.1592096984386444 0.42528489232063293 0.4556819498538971 -0.050674788653850555 0.8941806554794312 -0.5589039325714111 0.6133240461349487 0.23490965366363525 1.4388432502746582 -0.03285575658082962 -0.340983122587204 0.698168933391571 0.1236286535859108 -0.021431580185890198 -0.89570152759552 0.7976006865501404 -0.8995660543441772
Image_face0036.jpg: -0.020619548857212067 -0.20752698183059692 -0.10061860084533691 -0.6124491095542908 0.32965022325515747 0.09953239560127258 0.12867657840251923 -0.20435643196105957 0.08466342836618423 0.06589199602603912 0.4693313241004944 -0.2650001347064972 -0.013174794614315033 -0.5639405250549316 -0.13435427844524384 0.415632426738739 0.1119970977306366 -0.404604971408844 0.29687708616256714 -0.6728399395942688 0.11256295442581177 0.09989100694656372 -0.15169751644134521 0.10563760995864868 0.2493271678686142 0.025429613888263702 0.6852752566337585 0.44111108779907227 -0.32522428035736084 -0.17633157968521118 -0.43806591629981995 0.3725492060184479 -0.04620615392923355 -0.1414850950241089 0.40477749705314636 -0.1560017615556717 0.146198570728302 0.18377622961997986 0.7486347556114197 0.019607536494731903 0.2664937973022461 -0.152290478348732 -0.060732707381248474 -0.2957591116428375 -0.34464505314826965 -0.4268454611301422 0.08492980897426605 -0.19029246270656586 0.33744674921035767 0.250657320022583 -0.31434792280197144 0.5154008269309998 0.3502160906791687 -0.4003562927246094 0.11572010815143585 0.48785120248794556 0.1363273561000824 0.07825931906700134 -0.1574544608592987 -0.6674817204475403 -0.24153020977973938 -0.3953593969345093 -0.15205958485603333 0.516970157623291 0.12650352716445923 0.4401456117630005 0.11948010325431824 0.10305536538362503 -0.0659492164850235 -0.2797181010246277 -0.07919970899820328 -0.368166446685791 0.3704838752746582 -0.5002145171165466 -0.16498813033103943 -0.15367119014263153 -0.0894290879368782 0.5079822540283203 -0.24970203638076782 -0.3957135081291199 -0.5626235604286194 -0.10248580574989319 0.30350974202156067 0.4169808626174927 0.3344440162181854 0.22203513979911804 0.6164591312408447 -0.27986565232276917 -0.3554404079914093 0.5576469898223877 0.36258193850517273 0.08753354847431183 0.09505310654640198 -0.15262562036514282 0.7543232440948486 0.1546236127614975 -0.10270315408706665 -0.5372233390808105 -0.7222301959991455 0.0419744998216629 -0.20528210699558258 0.5660914182662964 0.31264156103134155 -0.4051470160484314 -0.13229402899742126 0.07626514136791229 -0.007798274513334036 0.27817344665527344 -0.08163416385650635 -0.33117207884788513 0.2600700855255127 0.03261149674654007 0.526543140411377 0.45120760798454285 0.1286478340625763 0.2989661693572998 0.11798010766506195 0.8016089200973511 0.29263362288475037 0.016704250127077103 -0.26741111278533936 0.08616579324007034 0.5591392517089844 0.34466442465782166 0.29887980222702026 -0.4229366183280945 0.36210930347442627 0.022220429033041
Image_face0037.jpg: 0.1944899559020996 -0.2991032302379608 -0.07750864326953888 -0.5825181007385254 0.19218973815441132 0.002352772280573845 0.004415538161993027 -0.24938544631004333 -0.01675209403038025 -0.0007687695324420929 0.24662566184997559 -0.2361677885055542 -0.05671420693397522 -0.25328493118286133 0.014524079859256744 0.25235915184020996 0.27732032537460327 -0.3437098264694214 0.2285785973072052 -0.5442585945129395 -0.20995521545410156 0.05344157665967941 -0.3916265070438385 0.07292302697896957 0.34048500657081604 0.11138012260198593 0.7304154634475708 0.44653093814849854 -0.2385662943124771 -0.11613801121711731 -0.26363465189933777 0.4439833164215088 -0.09130271524190903 -0.11165590584278107 0.3436110019683838 -0.23066498339176178 0.253449946641922 0.26737746596336365 0.7986584305763245 0.11595708131790161 0.16414102911949158 -0.09118442237377167 -0.08694520592689514 -0.3835659325122833 -0.445492148399353 -0.4177056550979614 -0.06627269089221954 -0.2514309287071228 0.31499791145324707 0.015388144180178642 -0.09577445685863495 0.34244391322135925 0.4398036599159241 -0.4671417474746704 0.21930761635303497 0.5296429395675659 0.1760946363210678 -0.008658599108457565 -0.020784124732017517 -0.6326913237571716 -0.20537212491035461 -0.20421971380710602 -0.035970404744148254 0.6972461342811584 0.004529064521193504 0.5035167336463928 0.1771317720413208 -0.10861002653837204 0.18694522976875305 -0.29511234164237976 -0.02109723538160324 -0.3965717554092407 0.4021855294704437 -0.5101876854896545 -0.1727522611618042 -0.05406713858246803 -0.16884982585906982 0.3188650608062744 -0.14078888297080994 -0.522101640701294 -0.3873940706253052 -0.17267325520515442 0.08537405729293823 0.6702499985694885 0.3660208582878113 -0.033299561589956284 0.6498425006866455 -0.4153246283531189 -0.4072372317314148 0.6046730279922485 0.2328377068042755 -0.02565879188477993 -0.12589320540428162 -0.18619045615196228 0.5556817650794983 0.2018355429172516 0.19755321741104126 -0.5251368284225464 -0.44384390115737915 0.0643036887049675 -0.3051789402961731 0.6362261176109314 0.3271246552467346 -0.3443755507469177 0.12461186200380325 0.19683335721492767 -0.1911717802286148 0.10315214097499847 -0.2582060694694519 -0.48948076367378235 0.4397166967391968 0.1053992211818695 0.3393087089061737 0.25784075260162354 0.1713152825832367 0.3744696378707886 -0.12710577249526978 0.9737811088562012 0.284544974565506 0.016252219676971436 -0.1845795214176178 -0.016673732548952103 0.42268067598342896 0.35492056608200073 0.1392994523048401 -0.2704782783985138 0.17977428436279297 -0.1636551171541214
Image_face0038.jpg: 0.020162247121334076 -0.3140784502029419 -0.15388602018356323 -0.5246220231056213 0.17685410380363464 -0.20873211324214935 0.033656101673841476 -0.2609415352344513 0.0591370090842247 -0.004320511594414711 0.3792421817779541 -0.2823329269886017 -0.10900247097015381 -0.5054218769073486 0.015506647527217865 0.35762518644332886 0.11468727141618729 -0.4444718360900879 0.06686726212501526 -0.6924746036529541 -0.34683501720428467 0.15325453877449036 -0.23071765899658203 0.15618056058883667 0.2961501479148865 0.12418448179960251 0.7398741841316223 0.449512779712677 -0.28351515531539917 -0.1978183090686798 -0.47330185770988464 0.4161299169063568 -0.10237565636634827 -0.16396255791187286 0.39093878865242004 0.025976918637752533 0.3238866627216339 0.17346306145191193 0.6160664558410645 -0.029035940766334534 0.17639657855033875 -0.10401264578104019 -0.2402457892894745 -0.22444409132003784 -0.3375047445297241 -0.4051899015903473 0.2596871554851532 -0.24055323004722595 0.19728977978229523 0.364739328622818 -0.3995465040206909 0.3013957440853119 0.4748058021068573 -0.3829963803291321 0.08010177314281464 0.5034454464912415 0.17000551521778107 0.24559500813484192 -0.0014578867703676224 -0.5359208583831787 -0.3226095736026764 -0.41364920139312744 -0.349107950925827 0.5646673440933228 0.2607901692390442 0.6251749396324158 0.20687486231327057 0.08410272002220154 0.16257748007774353 -0.403774619102478 -0.10698787868022919 -0.41771164536476135 0.18961986899375916 -0.5336287021636963 -0.1922270655632019 -0.07729120552539825 -0.2946053147315979 0.32072949409484863 -0.21420958638191223 -0.5698626637458801 -0.49164313077926636 -0.32712486386299133 0.16063076257705688 0.5266891121864319 0.43628591299057007 -0.10696111619472504 0.5635207891464233 -0.20332938432693481 -0.3000987768173218 0.5359934568405151 0.2916227877140045 -0.13720513880252838 -0.03441869094967842 -0.3406771719455719 0.5521396398544312 0.38529685139656067 -0.1761566698551178 -0.4662468135356903 -0.6101645231246948 0.027706703171133995 -0.2182236909866333 0.5371303558349609 0.269209623336792 -0.5880303978919983 -0.01858925074338913 0.24884410202503204 -0.022111179307103157 0.14456650614738464 -0.07434607297182083 -0.47687458992004395 0.35191524028778076 0.2252073734998703 0.4705706834793091 0.3981260359287262 0.1546017825603485 0.36979493498802185 -0.02659088931977749 0.6475337147712708 0.32117733359336853 0.2930256426334381 -0.07160920649766922 -0.2487647831439972 0.37273603677749634 0.28546249866485596 0.3402658700942993 -0.4045526385307312 0.46956586837768555 -0.006273610517382622
